{"learner":{"attributes":{"scikit_learn":"{\"_estimator_type\": \"regressor\"}"},"feature_names":["temperature","hour","minute","dayofweek","month","hour_frac","sin_hour","cos_hour","sin_month","cos_month","lag_4"],"feature_types":["float","int","int","int","int","float","float","float","float","float","float"],"gradient_booster":{"model":{"cats":{"enc":[],"feature_segments":[],"sorted_idx":[]},"gbtree_model_param":{"num_parallel_tree":"1","num_trees":"500"},"iteration_indptr":[0,1,2,3,4,5,6,7,8,9,10,11,12,13,14,15,16,17,18,19,20,21,22,23,24,25,26,27,28,29,30,31,32,33,34,35,36,37,38,39,40,41,42,43,44,45,46,47,48,49,50,51,52,53,54,55,56,57,58,59,60,61,62,63,64,65,66,67,68,69,70,71,72,73,74,75,76,77,78,79,80,81,82,83,84,85,86,87,88,89,90,91,92,93,94,95,96,97,98,99,100,101,102,103,104,105,106,107,108,109,110,111,112,113,114,115,116,117,118,119,120,121,122,123,124,125,126,127,128,129,130,131,132,133,134,135,136,137,138,139,140,141,142,143,144,145,146,147,148,149,150,151,152,153,154,155,156,157,158,159,160,161,162,163,164,165,166,167,168,169,170,171,172,173,174,175,176,177,178,179,180,181,182,183,184,185,186,187,188,189,190,191,192,193,194,195,196,197,198,199,200,201,202,203,204,205,206,207,208,209,210,211,212,213,214,215,216,217,218,219,220,221,222,223,224,225,226,227,228,229,230,231,232,233,234,235,236,237,238,239,240,241,242,243,244,245,246,247,248,249,250,251,252,253,254,255,256,257,258,259,260,261,262,263,264,265,266,267,268,269,270,271,272,273,274,275,276,277,278,279,280,281,282,283,284,285,286,287,288,289,290,291,292,293,294,295,296,297,298,299,300,301,302,303,304,305,306,307,308,309,310,311,312,313,314,315,316,317,318,319,320,321,322,323,324,325,326,327,328,329,330,331,332,333,334,335,336,337,338,339,340,341,342,343,344,345,346,347,348,349,350,351,352,353,354,355,356,357,358,359,360,361,362,363,364,365,366,367,368,369,370,371,372,373,374,375,376,377,378,379,380,381,382,383,384,385,386,387,388,389,390,391,392,393,394,395,396,397,398,399,400,401,402,403,404,405,406,407,408,409,410,411,412,413,414,415,416,417,418,419,420,421,422,423,424,425,426,427,428,429,430,431,432,433,434,435,436,437,438,439,440,441,442,443,444,445,446,447,448,449,450,451,452,453,454,455,456,457,458,459,460,461,462,463,464,465,466,467,468,469,470,471,472,473,474,475,476,477,478,479,480,481,482,483,484,485,486,487,488,489,490,491,492,493,494,495,496,497,498,499,500],"tree_info":[0,0,0,0,0,0,0,0,0,0,0,0,0,0,0,0,0,0,0,0,0,0,0,0,0,0,0,0,0,0,0,0,0,0,0,0,0,0,0,0,0,0,0,0,0,0,0,0,0,0,0,0,0,0,0,0,0,0,0,0,0,0,0,0,0,0,0,0,0,0,0,0,0,0,0,0,0,0,0,0,0,0,0,0,0,0,0,0,0,0,0,0,0,0,0,0,0,0,0,0,0,0,0,0,0,0,0,0,0,0,0,0,0,0,0,0,0,0,0,0,0,0,0,0,0,0,0,0,0,0,0,0,0,0,0,0,0,0,0,0,0,0,0,0,0,0,0,0,0,0,0,0,0,0,0,0,0,0,0,0,0,0,0,0,0,0,0,0,0,0,0,0,0,0,0,0,0,0,0,0,0,0,0,0,0,0,0,0,0,0,0,0,0,0,0,0,0,0,0,0,0,0,0,0,0,0,0,0,0,0,0,0,0,0,0,0,0,0,0,0,0,0,0,0,0,0,0,0,0,0,0,0,0,0,0,0,0,0,0,0,0,0,0,0,0,0,0,0,0,0,0,0,0,0,0,0,0,0,0,0,0,0,0,0,0,0,0,0,0,0,0,0,0,0,0,0,0,0,0,0,0,0,0,0,0,0,0,0,0,0,0,0,0,0,0,0,0,0,0,0,0,0,0,0,0,0,0,0,0,0,0,0,0,0,0,0,0,0,0,0,0,0,0,0,0,0,0,0,0,0,0,0,0,0,0,0,0,0,0,0,0,0,0,0,0,0,0,0,0,0,0,0,0,0,0,0,0,0,0,0,0,0,0,0,0,0,0,0,0,0,0,0,0,0,0,0,0,0,0,0,0,0,0,0,0,0,0,0,0,0,0,0,0,0,0,0,0,0,0,0,0,0,0,0,0,0,0,0,0,0,0,0,0,0,0,0,0,0,0,0,0,0,0,0,0,0,0,0,0,0,0,0,0,0,0,0,0,0,0,0,0,0,0,0,0,0,0,0,0,0,0,0,0,0,0,0,0,0,0,0,0,0,0,0,0,0,0,0,0,0,0,0,0,0,0,0,0,0,0,0,0,0,0,0,0,0,0,0,0,0,0,0,0,0,0,0,0,0,0,0],"trees":[{"base_weights":[-1.6046221E0,-1.4011976E3,3.4723245E2,-6.3985455E2,-1.6454663E3,1.4234976E3,2.1348366E1,-1.6077385E1,-5.110203E1,-8.877398E1,-5.7133022E1,8.599912E1,1.9287271E1,1.3481383E1,-5.524872E1],"categories":[],"categories_nodes":[],"categories_segments":[],"categories_sizes":[],"default_left":[0,0,0,0,0,0,0,0,0,0,0,0,0,0,0],"id":0,"left_children":[1,3,5,7,9,11,13,-1,-1,-1,-1,-1,-1,-1,-1],"loss_changes":[1.9104436E10,1.4508339E9,1.0986124E10,2.3056774E8,3.9633715E8,2.239233E9,6.7240233E9,0E0,0E0,0E0,0E0,0E0,0E0,0E0,0E0],"parents":[2147483647,0,0,1,1,2,2,3,3,4,4,5,5,6,6],"right_children":[2,4,6,8,10,12,14,-1,-1,-1,-1,-1,-1,-1,-1],"split_conditions":[4.75E0,4.75E0,3E0,3E0,3.75E0,1.975E1,2.05E1,-1.6077385E1,-5.110203E1,-8.877398E1,-5.7133022E1,8.599912E1,1.9287271E1,1.3481383E1,-5.524872E1],"split_indices":[5,0,4,4,5,5,5,0,0,0,0,0,0,0,0],"split_type":[0,0,0,0,0,0,0,0,0,0,0,0,0,0,0],"sum_hessian":[3.9128E4,7.806E3,3.1322E4,1.897E3,5.909E3,7.279E3,2.4043E4,1.036E3,8.61E2,4.723E3,1.186E3,5.661E3,1.618E3,1.9701E4,4.342E3],"tree_param":{"num_deleted":"0","num_feature":"11","num_nodes":"15","size_leaf_vector":"1"}},{"base_weights":[5.4359365E0,6.379651E2,-9.245E2,1.02305994E3,-3.215987E2,-7.3120415E1,-1.1827535E3,8.299044E1,2.4490335E1,3.5123497E1,-3.0484549E1,-3.162886E1,2.0034384E1,-8.38641E1,-4.3541546E1],"categories":[],"categories_nodes":[],"categories_segments":[],"categories_sizes":[],"default_left":[0,0,0,0,0,0,0,0,0,0,0,0,0,0,0],"id":1,"left_children":[1,3,5,7,9,11,13,-1,-1,-1,-1,-1,-1,-1,-1],"loss_changes":[2.3173775E10,8.664908E9,3.506649E9,5.680847E9,1.9818246E9,9.844776E8,1.8861507E9,0E0,0E0,0E0,0E0,0E0,0E0,0E0,0E0],"parents":[2147483647,0,0,1,1,2,2,3,3,4,4,5,5,6,6],"right_children":[2,4,6,8,10,12,14,-1,-1,-1,-1,-1,-1,-1,-1],"split_conditions":[3.2143947E-1,5E0,3E0,1.08375E1,3E0,4.5E0,3.75E0,8.299044E1,2.4490335E1,3.5123497E1,-3.0484549E1,-3.162886E1,2.0034384E1,-8.38641E1,-4.3541546E1],"split_indices":[7,3,4,0,4,5,5,0,0,0,0,0,0,0,0],"split_type":[0,0,0,0,0,0,0,0,0,0,0,0,0,0,0],"sum_hessian":[3.9395E4,2.3447E4,1.5948E4,1.6732E4,6.715E3,3.712E3,1.2236E4,7.625E3,9.107E3,1.474E3,5.241E3,1.702E3,2.01E3,4.731E3,7.505E3],"tree_param":{"num_deleted":"0","num_feature":"11","num_nodes":"15","size_leaf_vector":"1"}},{"base_weights":[-7.961934E-1,6.0334753E2,-8.840836E2,9.6687933E2,-3.1150854E2,-2.1079295E2,-1.1777784E3,7.743731E1,2.1653399E1,3.4337902E1,-2.9501286E1,1.8501385E1,-3.4690887E1,-2.0035784E1,-7.088849E1],"categories":[],"categories_nodes":[],"categories_segments":[],"categories_sizes":[],"default_left":[0,0,0,0,0,0,0,0,0,0,0,0,0,0,0],"id":2,"left_children":[1,3,5,7,9,11,13,-1,-1,-1,-1,-1,-1,-1,-1],"loss_changes":[2.0996307E10,7.771015E9,3.1598674E9,5.1929907E9,1.8479434E9,1.3623305E9,2.0744858E9,0E0,0E0,0E0,0E0,0E0,0E0,0E0,0E0],"parents":[2147483647,0,0,1,1,2,2,3,3,4,4,5,5,6,6],"right_children":[2,4,6,8,10,12,14,-1,-1,-1,-1,-1,-1,-1,-1],"split_conditions":[3.2143947E-1,5E0,-4.422887E-1,1.13E1,3E0,9.55E0,4.75E0,7.743731E1,2.1653399E1,3.4337902E1,-2.9501286E1,1.8501385E1,-3.4690887E1,-2.0035784E1,-7.088849E1],"split_indices":[7,3,6,0,4,0,0,0,0,0,0,0,0,0,0],"split_type":[0,0,0,0,0,0,0,0,0,0,0,0,0,0,0],"sum_hessian":[3.9344E4,2.3364E4,1.598E4,1.672E4,6.644E3,4.854E3,1.1126E4,7.999E3,8.721E3,1.449E3,5.195E3,2.204E3,2.65E3,2.626E3,8.5E3],"tree_param":{"num_deleted":"0","num_feature":"11","num_nodes":"15","size_leaf_vector":"1"}},{"base_weights":[3.5807168E0,-1.2081382E3,2.9894763E2,-5.4779987E2,-1.4242828E3,1.2583317E3,5.4560833E0,-1.3325798E1,-4.393885E1,-7.803939E1,-5.1596992E1,7.495023E1,1.7199417E1,1.1610213E1,-4.6315834E1],"categories":[],"categories_nodes":[],"categories_segments":[],"categories_sizes":[],"default_left":[0,0,0,0,0,0,0,0,0,0,0,0,0,0,0],"id":3,"left_children":[1,3,5,7,9,11,13,-1,-1,-1,-1,-1,-1,-1,-1],"loss_changes":[1.4050506E10,1.0973757E9,8.887504E9,1.765598E8,3.088046E8,1.6265892E9,5.10701E9,0E0,0E0,0E0,0E0,0E0,0E0,0E0,0E0],"parents":[2147483647,0,0,1,1,2,2,3,3,4,4,5,5,6,6],"right_children":[2,4,6,8,10,12,14,-1,-1,-1,-1,-1,-1,-1,-1],"split_conditions":[4.75E0,4.875E0,3E0,3E0,3.5E0,2E1,2.025E1,-1.3325798E1,-4.393885E1,-7.803939E1,-5.1596992E1,7.495023E1,1.7199417E1,1.1610213E1,-4.6315834E1],"split_indices":[5,0,4,4,5,1,5,0,0,0,0,0,0,0,0],"split_type":[0,0,0,0,0,0,0,0,0,0,0,0,0,0,0],"sum_hessian":[3.9256E4,7.693E3,3.1563E4,1.898E3,5.795E3,7.393E3,2.417E4,1.027E3,8.71E2,4.297E3,1.498E3,5.852E3,1.541E3,1.944E4,4.73E3],"tree_param":{"num_deleted":"0","num_feature":"11","num_nodes":"15","size_leaf_vector":"1"}},{"base_weights":[-1.9372965E0,-1.0786897E3,3.0060468E2,-4.496531E2,-1.2867024E3,1.2182688E3,2.2169338E1,-1.0025203E1,-3.7916214E1,-7.295993E1,-4.3408886E1,7.416938E1,1.8858974E1,1.5822917E1,-3.4699306E1],"categories":[],"categories_nodes":[],"categories_segments":[],"categories_sizes":[],"default_left":[0,0,0,0,0,0,0,0,0,0,0,0,0,0,0],"id":4,"left_children":[1,3,5,7,9,11,13,-1,-1,-1,-1,-1,-1,-1,-1],"loss_changes":[1.2720384E10,1.1201321E9,7.7886853E9,1.6365594E8,4.898816E8,1.5817697E9,4.929396E9,0E0,0E0,0E0,0E0,0E0,0E0,0E0,0E0],"parents":[2147483647,0,0,1,1,2,2,3,3,4,4,5,5,6,6],"right_children":[2,4,6,8,10,12,14,-1,-1,-1,-1,-1,-1,-1,-1],"split_conditions":[5.25E0,4.75E0,3E0,3E0,3.75E0,1.95E1,5E0,-1.0025203E1,-3.7916214E1,-7.295993E1,-4.3408886E1,7.416938E1,1.8858974E1,1.5822917E1,-3.4699306E1],"split_indices":[5,0,4,4,5,5,3,0,0,0,0,0,0,0,0],"split_type":[0,0,0,0,0,0,0,0,0,0,0,0,0,0,0],"sum_hessian":[3.9046E4,8.564E3,3.0482E4,2.129E3,6.435E3,7.095E3,2.3387E4,1.179E3,9.5E2,4.631E3,1.804E3,5.394E3,1.701E3,1.6576E4,6.811E3],"tree_param":{"num_deleted":"0","num_feature":"11","num_nodes":"15","size_leaf_vector":"1"}},{"base_weights":[-3.6264408E0,5.542724E2,-7.4346814E2,8.9162054E2,-2.780936E2,-1.9244905E2,-1.0444772E3,7.29521E1,2.0991825E1,1.2170447E1,-3.6866276E1,2.0007076E1,-2.7020086E1,-2.1707365E1,-6.3435497E1],"categories":[],"categories_nodes":[],"categories_segments":[],"categories_sizes":[],"default_left":[0,0,0,0,0,0,0,0,0,0,0,0,0,0,0],"id":5,"left_children":[1,3,5,7,9,11,13,-1,-1,-1,-1,-1,-1,-1,-1],"loss_changes":[1.6109898E10,6.2482657E9,2.7827907E9,4.2381558E9,1.5372301E9,1.2227374E9,1.4844754E9,0E0,0E0,0E0,0E0,0E0,0E0,0E0,0E0],"parents":[2147483647,0,0,1,1,2,2,3,3,4,4,5,5,6,6],"right_children":[2,4,6,8,10,12,14,-1,-1,-1,-1,-1,-1,-1,-1],"split_conditions":[2.5881904E-1,5E0,4E0,1.095E1,1.1525E1,-3.2143947E-1,-5.5557024E-1,7.29521E1,2.0991825E1,1.2170447E1,-3.6866276E1,2.0007076E1,-2.7020086E1,-2.1707365E1,-6.3435497E1],"split_indices":[7,3,4,0,0,6,6,0,0,0,0,0,0,0,0],"split_type":[0,0,0,0,0,0,0,0,0,0,0,0,0,0,0],"sum_hessian":[3.9028E4,2.225E4,1.6778E4,1.5833E4,6.417E3,5.928E3,1.085E4,7.187E3,8.646E3,3.005E3,3.412E3,2.193E3,3.735E3,2.916E3,7.934E3],"tree_param":{"num_deleted":"0","num_feature":"11","num_nodes":"15","size_leaf_vector":"1"}},{"base_weights":[-2.3334522E0,-9.5006665E2,2.81146E2,-4.650793E2,-1.174049E3,-2.8286124E2,7.7023926E2,5.283456E0,-2.9501825E1,-6.930054E1,-4.0978207E1,-4.4408813E0,-6.421084E1,5.2665974E1,3.4908326E0],"categories":[],"categories_nodes":[],"categories_segments":[],"categories_sizes":[],"default_left":[0,0,0,0,0,0,0,0,0,0,0,0,0,0,0],"id":6,"left_children":[1,3,5,7,9,11,13,-1,-1,-1,-1,-1,-1,-1,-1],"loss_changes":[1.0546091E10,9.812403E8,8.335366E9,2.03821E8,5.1108096E8,2.726785E9,3.208623E9,0E0,0E0,0E0,0E0,0E0,0E0,0E0,0E0],"parents":[2147483647,0,0,1,1,2,2,3,3,4,4,5,5,6,6],"right_children":[2,4,6,8,10,12,14,-1,-1,-1,-1,-1,-1,-1,-1],"split_conditions":[5.5E0,6.25E0,6.123234E-17,-4.5000002E-1,3.5E0,2.1E1,5E0,5.283456E0,-2.9501825E1,-6.930054E1,-4.0978207E1,-4.4408813E0,-6.421084E1,5.2665974E1,3.4908326E0],"split_indices":[5,0,9,0,5,1,3,0,0,0,0,0,0,0,0],"split_type":[0,0,0,0,0,0,0,0,0,0,0,0,0,0,0],"sum_hessian":[3.9252E4,9.037E3,3.0215E4,2.856E3,6.181E3,1.4033E4,1.6182E4,5.13E2,2.343E3,4.015E3,2.166E3,1.1756E4,2.277E3,1.1524E4,4.658E3],"tree_param":{"num_deleted":"0","num_feature":"11","num_nodes":"15","size_leaf_vector":"1"}},{"base_weights":[-5.267873E-1,-8.991383E2,2.6780182E2,-3.455603E2,-1.0856589E3,-1.5723216E2,8.741594E2,-2.4230124E1,3.879588E0,-6.2850807E1,-3.5780483E1,1.6000223E0,-5.1522224E1,5.714198E1,2.014192E0],"categories":[],"categories_nodes":[],"categories_segments":[],"categories_sizes":[],"default_left":[0,0,0,0,0,0,0,0,0,0,0,0,0,0,0],"id":7,"left_children":[1,3,5,7,9,11,13,-1,-1,-1,-1,-1,-1,-1,-1],"loss_changes":[9.48482E9,9.335547E8,7.8068116E9,1.3424246E8,5.1849165E8,2.9427968E9,2.796716E9,0E0,0E0,0E0,0E0,0E0,0E0,0E0,0E0],"parents":[2147483647,0,0,1,1,2,2,3,3,4,4,5,5,6,6],"right_children":[2,4,6,8,10,12,14,-1,-1,-1,-1,-1,-1,-1,-1],"split_conditions":[5.5E0,4.875E0,5E-1,4.25E0,4E0,2.075E1,1.95E1,-2.4230124E1,3.879588E0,-6.2850807E1,-3.5780483E1,1.6000223E0,-5.1522224E1,5.714198E1,2.014192E0],"split_indices":[5,0,9,5,1,5,5,0,0,0,0,0,0,0,0],"split_type":[0,0,0,0,0,0,0,0,0,0,0,0,0,0,0],"sum_hessian":[3.9334E4,9.044E3,3.029E4,2.28E3,6.764E3,1.7808E4,1.2482E4,1.716E3,5.64E2,4.93E3,1.834E3,1.4637E4,3.171E3,9.44E3,3.042E3],"tree_param":{"num_deleted":"0","num_feature":"11","num_nodes":"15","size_leaf_vector":"1"}},{"base_weights":[4.7029415E-1,4.2507086E2,-7.405407E2,7.302524E2,-3.3961325E2,-1.1470596E3,-3.861354E2,1.6334822E1,6.455887E1,-4.227796E1,5.221441E0,-3.1511703E1,-6.499571E1,6.338805E0,-3.2514458E1],"categories":[],"categories_nodes":[],"categories_segments":[],"categories_sizes":[],"default_left":[0,0,0,0,0,0,0,0,0,0,0,0,0,0,0],"id":8,"left_children":[1,3,5,7,9,11,13,-1,-1,-1,-1,-1,-1,-1,-1],"loss_changes":[1.2359128E10,5.8278973E9,2.0610908E9,4.0399606E9,1.600575E9,5.256315E8,1.03601946E9,0E0,0E0,0E0,0E0,0E0,0E0,0E0,0E0],"parents":[2147483647,0,0,1,1,2,2,3,3,4,4,5,5,6,6],"right_children":[2,4,6,8,10,12,14,-1,-1,-1,-1,-1,-1,-1,-1],"split_conditions":[4.422887E-1,5E0,6.123234E-17,5E-1,6.123234E-17,-5.5557024E-1,-3.2143947E-1,1.6334822E1,6.455887E1,-4.227796E1,5.221441E0,-3.1511703E1,-6.499571E1,6.338805E0,-3.2514458E1],"split_indices":[7,3,9,9,9,6,6,0,0,0,0,0,0,0,0],"split_type":[0,0,0,0,0,0,0,0,0,0,0,0,0,0,0],"sum_hessian":[3.9279E4,2.4971E4,1.4308E4,1.7848E4,7.123E3,6.663E3,7.645E3,1.0381E4,7.467E3,3.329E3,3.794E3,1.522E3,5.141E3,2.599E3,5.046E3],"tree_param":{"num_deleted":"0","num_feature":"11","num_nodes":"15","size_leaf_vector":"1"}},{"base_weights":[9.796787E-1,-8.2512317E2,2.4784743E2,-4.4301926E2,-1.045796E3,-2.5010098E2,6.8012885E2,-7.7926745E0,-3.304353E1,-4.3447063E1,-7.3613144E1,-4.7165852E-2,-4.3596985E1,4.677041E1,1.8725098E0],"categories":[],"categories_nodes":[],"categories_segments":[],"categories_sizes":[],"default_left":[0,0,0,0,0,0,0,0,0,0,0,0,0,0,0],"id":9,"left_children":[1,3,5,7,9,11,13,-1,-1,-1,-1,-1,-1,-1,-1],"loss_changes":[7.997842E9,7.6035584E8,6.499544E9,2.0665594E8,4.300636E8,2.1740598E9,2.6517084E9,0E0,0E0,0E0,0E0,0E0,0E0,0E0,0E0],"parents":[2147483647,0,0,1,1,2,2,3,3,4,4,5,5,6,6],"right_children":[2,4,6,8,10,12,14,-1,-1,-1,-1,-1,-1,-1,-1],"split_conditions":[5.5E0,7E0,6.123234E-17,3E0,5E0,5E0,5E0,-7.7926745E0,-3.304353E1,-4.3447063E1,-7.3613144E1,-4.7165852E-2,-4.3596985E1,4.677041E1,1.8725098E0],"split_indices":[5,0,9,4,3,3,3,0,0,0,0,0,0,0,0],"split_type":[0,0,0,0,0,0,0,0,0,0,0,0,0,0,0],"sum_hessian":[3.9215E4,9.022E3,3.0193E4,3.304E3,5.718E3,1.4031E4,1.6162E4,1.426E3,1.878E3,4.044E3,1.674E3,1.0018E4,4.013E3,1.1567E4,4.595E3],"tree_param":{"num_deleted":"0","num_feature":"11","num_nodes":"15","size_leaf_vector":"1"}},{"base_weights":[3.612438E-1,-8.525745E2,2.1116275E2,-3.1067816E2,-1.01380786E3,9.499994E2,-1.2693251E1,8.612503E0,-2.233506E1,-5.7822735E1,-3.4831814E1,5.956438E1,1.5191236E1,1.1387633E1,-2.986207E1],"categories":[],"categories_nodes":[],"categories_segments":[],"categories_sizes":[],"default_left":[0,0,0,0,0,0,0,0,0,0,0,0,0,0,0],"id":10,"left_children":[1,3,5,7,9,11,13,-1,-1,-1,-1,-1,-1,-1,-1],"loss_changes":[7.056976E9,6.792627E8,5.2050964E9,1.1733253E8,2.7038464E8,1.1406188E9,3.3950339E9,0E0,0E0,0E0,0E0,0E0,0E0,0E0,0E0],"parents":[2147483647,0,0,1,1,2,2,3,3,4,4,5,5,6,6],"right_children":[2,4,6,8,10,12,14,-1,-1,-1,-1,-1,-1,-1,-1],"split_conditions":[4.75E0,3E0,3E0,2.5E-2,3.25E0,5E0,5E0,8.612503E0,-2.233506E1,-5.7822735E1,-3.4831814E1,5.956438E1,1.5191236E1,1.1387633E1,-2.986207E1],"split_indices":[5,4,4,0,5,3,3,0,0,0,0,0,0,0,0],"split_type":[0,0,0,0,0,0,0,0,0,0,0,0,0,0,0],"sum_hessian":[3.9247E4,7.777E3,3.147E4,1.784E3,5.993E3,7.317E3,2.4153E4,3.92E2,1.392E3,4.132E3,1.861E3,5.327E3,1.99E3,1.7114E4,7.039E3],"tree_param":{"num_deleted":"0","num_feature":"11","num_nodes":"15","size_leaf_vector":"1"}},{"base_weights":[1.5212824E0,4.8398007E2,-5.454381E2,1.0554594E3,1.347128E2,3.9241257E1,-7.2165356E2,6.6279396E1,2.9754303E1,2.0132418E1,-2.56761E1,-1.2973047E1,1.5896105E1,-1.9372353E1,-4.941074E1],"categories":[],"categories_nodes":[],"categories_segments":[],"categories_sizes":[],"default_left":[0,0,0,0,0,0,0,0,0,0,0,0,0,0,0],"id":11,"left_children":[1,3,5,7,9,11,13,-1,-1,-1,-1,-1,-1,-1,-1],"loss_changes":[1.0381516E10,4.172076E9,1.8996864E9,1.3811292E9,2.2537718E9,3.5561155E8,1.2617953E9,0E0,0E0,0E0,0E0,0E0,0E0,0E0,0E0],"parents":[2147483647,0,0,1,1,2,2,3,3,4,4,5,5,6,6],"right_children":[2,4,6,8,10,12,14,-1,-1,-1,-1,-1,-1,-1,-1],"split_conditions":[1.3052619E-1,9.75E0,3E0,5E0,5E0,5.5E0,7.0710677E-1,6.6279396E1,2.9754303E1,2.0132418E1,-2.56761E1,-1.2973047E1,1.5896105E1,-1.9372353E1,-4.941074E1],"split_indices":[7,0,4,3,3,5,7,0,0,0,0,0,0,0,0],"split_type":[0,0,0,0,0,0,0,0,0,0,0,0,0,0,0],"sum_hessian":[3.9339E4,2.0902E4,1.8437E4,7.928E3,1.2974E4,4.27E3,1.4167E4,5.737E3,2.191E3,9.18E3,3.794E3,2.061E3,2.209E3,6.287E3,7.88E3],"tree_param":{"num_deleted":"0","num_feature":"11","num_nodes":"15","size_leaf_vector":"1"}},{"base_weights":[4.0719748E-1,-6.69381E2,8.465566E2,-1.1143612E3,-3.2948273E2,5.621957E2,1.5981896E3,-7.567614E1,-4.819509E1,-2.5858511E1,-5.8658247E0,1.7825163E1,4.1273705E1,6.837714E1,1.0466235E2],"categories":[],"categories_nodes":[],"categories_segments":[],"categories_sizes":[],"default_left":[0,0,0,0,0,0,0,0,0,0,0,0,0,0,0],"id":12,"left_children":[1,3,5,7,9,11,13,-1,-1,-1,-1,-1,-1,-1,-1],"loss_changes":[2.2335824E10,3.3267845E9,3.720872E9,5.706506E8,4.966258E8,6.839457E8,5.428193E8,0E0,0E0,0E0,0E0,0E0,0E0,0E0,0E0],"parents":[2147483647,0,0,1,1,2,2,3,3,4,4,5,5,6,6],"right_children":[2,4,6,8,10,12,14,-1,-1,-1,-1,-1,-1,-1,-1],"split_conditions":[9.485478E3,8.200258E3,1.0931733E4,7.30163E3,8.866832E3,1.0173387E4,1.1777607E4,-7.567614E1,-4.819509E1,-2.5858511E1,-5.8658247E0,1.7825163E1,4.1273705E1,6.837714E1,1.0466235E2],"split_indices":[10,10,10,10,10,10,10,0,0,0,0,0,0,0,0],"split_type":[0,0,0,0,0,0,0,0,0,0,0,0,0,0,0],"sum_hessian":[3.9409E4,2.1997E4,1.7412E4,9.525E3,1.2472E4,1.2634E4,4.778E3,2.605E3,6.92E3,6.617E3,5.855E3,7.094E3,5.54E3,3.262E3,1.516E3],"tree_param":{"num_deleted":"0","num_feature":"11","num_nodes":"15","size_leaf_vector":"1"}},{"base_weights":[-1.3888385E0,4.3412512E2,-4.9273544E2,8.657378E2,5.3835354E1,-3.6605785E0,-6.7485333E2,5.5306812E1,2.2989328E1,1.5019923E1,-2.706825E1,3.0203129E1,-1.1784966E1,-2.0065483E1,-4.7002758E1],"categories":[],"categories_nodes":[],"categories_segments":[],"categories_sizes":[],"default_left":[0,0,0,0,0,0,0,0,0,0,0,0,0,0,0],"id":13,"left_children":[1,3,5,7,9,11,13,-1,-1,-1,-1,-1,-1,-1,-1],"loss_changes":[8.415518E9,3.4219008E9,1.6459085E9,1.3366487E9,1.626789E9,7.073342E8,9.764311E8,0E0,0E0,0E0,0E0,0E0,0E0,0E0,0E0],"parents":[2147483647,0,0,1,1,2,2,3,3,4,4,5,5,6,6],"right_children":[2,4,6,8,10,12,14,-1,-1,-1,-1,-1,-1,-1,-1],"split_conditions":[1.3052619E-1,1.145E1,6E0,5E0,5E0,-4.422887E-1,7.518398E-1,5.5306812E1,2.2989328E1,1.5019923E1,-2.706825E1,3.0203129E1,-1.1784966E1,-2.0065483E1,-4.7002758E1],"split_indices":[7,0,0,3,3,6,7,0,0,0,0,0,0,0,0],"split_type":[0,0,0,0,0,0,0,0,0,0,0,0,0,0,0],"sum_hessian":[3.9325E4,2.0847E4,1.8478E4,9.764E3,1.1083E4,5.014E3,1.3464E4,7.051E3,2.713E3,7.837E3,3.246E3,1.385E3,3.629E3,6.629E3,6.835E3],"tree_param":{"num_deleted":"0","num_feature":"11","num_nodes":"15","size_leaf_vector":"1"}},{"base_weights":[-3.946512E0,-6.054614E2,7.982999E2,-1.0453346E3,-3.0557742E2,5.511706E2,1.5252057E3,-7.296038E1,-4.5947884E1,-2.473331E1,-4.971023E0,1.835779E1,4.050623E1,6.6160866E1,1.015707E2],"categories":[],"categories_nodes":[],"categories_segments":[],"categories_sizes":[],"default_left":[0,0,0,0,0,0,0,0,0,0,0,0,0,0,0],"id":14,"left_children":[1,3,5,7,9,11,13,-1,-1,-1,-1,-1,-1,-1,-1],"loss_changes":[1.8955567E10,2.9609498E9,3.022853E9,4.74624E8,5.2036032E8,5.983465E8,4.3391283E8,0E0,0E0,0E0,0E0,0E0,0E0,0E0,0E0],"parents":[2147483647,0,0,1,1,2,2,3,3,4,4,5,5,6,6],"right_children":[2,4,6,8,10,12,14,-1,-1,-1,-1,-1,-1,-1,-1],"split_conditions":[9.534777E3,8.1538877E3,1.1027977E4,7.2246875E3,8.851192E3,1.0253515E4,1.1908077E4,-7.296038E1,-4.5947884E1,-2.473331E1,-4.971023E0,1.835779E1,4.050623E1,6.6160866E1,1.015707E2],"split_indices":[10,10,10,10,10,10,10,0,0,0,0,0,0,0,0],"split_type":[0,0,0,0,0,0,0,0,0,0,0,0,0,0,0],"sum_hessian":[3.9279E4,2.2448E4,1.6831E4,9.099E3,1.3349E4,1.2562E4,4.269E3,2.126E3,6.973E3,6.962E3,6.387E3,7.345E3,5.217E3,3.054E3,1.215E3],"tree_param":{"num_deleted":"0","num_feature":"11","num_nodes":"15","size_leaf_vector":"1"}},{"base_weights":[-1.5989051E0,3.1458264E2,-5.5494965E2,5.3697577E2,-2.4032628E2,-2.667016E1,-7.0629834E2,6.1167904E1,1.7444412E1,-4.6192837E1,-4.6277347E0,2.0373085E1,-1.23349905E1,-1.8324213E1,-4.2008175E1],"categories":[],"categories_nodes":[],"categories_segments":[],"categories_sizes":[],"default_left":[0,0,0,0,0,0,0,0,0,0,0,0,0,0,0],"id":15,"left_children":[1,3,5,7,9,11,13,-1,-1,-1,-1,-1,-1,-1,-1],"loss_changes":[6.881498E9,3.0890294E9,1.143489E9,2.3064607E9,7.23322E8,3.0443318E8,5.5061094E8,0E0,0E0,0E0,0E0,0E0,0E0,0E0,0E0],"parents":[2147483647,0,0,1,1,2,2,3,3,4,4,5,5,6,6],"right_children":[2,4,6,8,10,12,14,-1,-1,-1,-1,-1,-1,-1,-1],"split_conditions":[4.422887E-1,5E0,4.65E0,6.175E0,7.25E0,-2.5881904E-1,-5E-1,6.1167904E1,1.7444412E1,-4.6192837E1,-4.6277347E0,2.0373085E1,-1.23349905E1,-1.8324213E1,-4.2008175E1],"split_indices":[7,3,0,0,5,6,6,0,0,0,0,0,0,0,0],"split_type":[0,0,0,0,0,0,0,0,0,0,0,0,0,0,0],"sum_hessian":[3.933E4,2.5029E4,1.4301E4,1.7868E4,7.161E3,3.185E3,1.1116E4,3.842E3,1.4026E4,1.272E3,5.889E3,1.071E3,2.114E3,2.941E3,8.175E3],"tree_param":{"num_deleted":"0","num_feature":"11","num_nodes":"15","size_leaf_vector":"1"}},{"base_weights":[-1.5894802E-1,-5.4438434E2,7.539151E2,-9.346735E2,-2.494082E2,5.0514957E2,1.3642959E3,-6.178908E1,-3.8797905E1,-2.0014097E1,-1.8183388E0,1.6398859E1,3.5170475E1,5.6417896E1,8.68652E1],"categories":[],"categories_nodes":[],"categories_segments":[],"categories_sizes":[],"default_left":[0,0,0,0,0,0,0,0,0,0,0,0,0,0,0],"id":16,"left_children":[1,3,5,7,9,11,13,-1,-1,-1,-1,-1,-1,-1,-1],"loss_changes":[1.6048976E10,2.614739E9,2.488453E9,4.6628864E8,4.158434E8,4.089188E8,4.157184E8,0E0,0E0,0E0,0E0,0E0,0E0,0E0,0E0],"parents":[2147483647,0,0,1,1,2,2,3,3,4,4,5,5,6,6],"right_children":[2,4,6,8,10,12,14,-1,-1,-1,-1,-1,-1,-1,-1],"split_conditions":[9.583728E3,8.231798E3,1.0931733E4,7.4185327E3,9.018343E3,1.0173387E4,1.1662758E4,-6.178908E1,-3.8797905E1,-2.0014097E1,-1.8183388E0,1.6398859E1,3.5170475E1,5.6417896E1,8.68652E1],"split_indices":[10,10,10,10,10,10,10,0,0,0,0,0,0,0,0],"split_type":[0,0,0,0,0,0,0,0,0,0,0,0,0,0,0],"sum_hessian":[3.9105E4,2.2713E4,1.6392E4,9.776E3,1.2937E4,1.1647E4,4.745E3,3.372E3,6.404E3,7.573E3,5.364E3,6.152E3,5.495E3,2.909E3,1.836E3],"tree_param":{"num_deleted":"0","num_feature":"11","num_nodes":"15","size_leaf_vector":"1"}},{"base_weights":[-7.68253E-2,-6.3377936E2,1.351206E2,-2.1888795E2,-7.5965936E2,7.045041E2,-2.8812565E1,5.162556E0,-1.5831439E1,-3.4466488E1,-5.8200268E1,4.5434326E1,1.6892288E1,5.327886E0,-3.1582045E1],"categories":[],"categories_nodes":[],"categories_segments":[],"categories_sizes":[],"default_left":[0,0,0,0,0,0,0,0,0,0,0,0,0,0,0],"id":17,"left_children":[1,3,5,7,9,11,13,-1,-1,-1,-1,-1,-1,-1,-1],"loss_changes":[3.3713096E9,3.6118886E8,3.027157E9,5.078835E7,1.5014349E8,7.213048E8,2.0550454E9,0E0,0E0,0E0,0E0,0E0,0E0,0E0,0E0],"parents":[2147483647,0,0,1,1,2,2,3,3,4,4,5,5,6,6],"right_children":[2,4,6,8,10,12,14,-1,-1,-1,-1,-1,-1,-1,-1],"split_conditions":[4.25E0,3E0,6.175E0,2.5E-1,6E0,5E0,2.025E1,5.162556E0,-1.5831439E1,-3.4466488E1,-5.8200268E1,4.5434326E1,1.6892288E1,5.327886E0,-3.1582045E1],"split_indices":[5,4,0,0,3,3,5,0,0,0,0,0,0,0,0],"split_type":[0,0,0,0,0,0,0,0,0,0,0,0,0,0,0],"sum_hessian":[3.9348E4,6.918E3,3.243E4,1.611E3,5.307E3,7.249E3,2.5181E4,3.75E2,1.236E3,4.523E3,7.84E2,5.204E3,2.045E3,2.0564E4,4.617E3],"tree_param":{"num_deleted":"0","num_feature":"11","num_nodes":"15","size_leaf_vector":"1"}},{"base_weights":[-8.323601E-1,3.6769162E2,-3.7016217E2,7.2828467E2,2.182985E1,-3.635053E1,-5.376133E2,5.5411358E1,2.5286535E1,1.119872E1,-2.3155977E1,2.1649832E1,-1.0013863E1,-1.6639406E1,-4.016443E1],"categories":[],"categories_nodes":[],"categories_segments":[],"categories_sizes":[],"default_left":[0,0,0,0,0,0,0,0,0,0,0,0,0,0,0],"id":18,"left_children":[1,3,5,7,9,11,13,-1,-1,-1,-1,-1,-1,-1,-1],"loss_changes":[5.358664E9,2.4577495E9,1.0991414E9,8.15252E8,9.862843E8,5.0557293E8,7.123233E8,0E0,0E0,0E0,0E0,0E0,0E0,0E0,0E0],"parents":[2147483647,0,0,1,1,2,2,3,3,4,4,5,5,6,6],"right_children":[2,4,6,8,10,12,14,-1,-1,-1,-1,-1,-1,-1,-1],"split_conditions":[6.123234E-17,1.205E1,7E0,5.8E0,5E0,-5E-1,7.933533E-1,5.5411358E1,2.5286535E1,1.119872E1,-2.3155977E1,2.1649832E1,-1.0013863E1,-1.6639406E1,-4.016443E1],"split_indices":[7,0,0,0,3,6,7,0,0,0,0,0,0,0,0],"split_type":[0,0,0,0,0,0,0,0,0,0,0,0,0,0,0],"sum_hessian":[3.9369E4,1.9706E4,1.9663E4,9.647E3,1.0059E4,6.569E3,1.3094E4,3.562E3,6.085E3,7.1E3,2.959E3,1.7E3,4.869E3,7.395E3,5.699E3],"tree_param":{"num_deleted":"0","num_feature":"11","num_nodes":"15","size_leaf_vector":"1"}},{"base_weights":[-5.70016E-1,-4.6406555E2,1.5279042E2,-3.1023688E2,-8.5846405E2,7.116872E2,-3.2273895E-1,-2.648049E1,2.6058753E0,-2.6648771E1,-5.1891266E1,4.908466E1,1.7784111E1,7.2061615E0,-2.7008442E1],"categories":[],"categories_nodes":[],"categories_segments":[],"categories_sizes":[],"default_left":[0,0,0,0,0,0,0,0,0,0,0,0,0,0,0],"id":19,"left_children":[1,3,5,7,9,11,13,-1,-1,-1,-1,-1,-1,-1,-1],"loss_changes":[2.7996306E9,5.9381235E8,2.532491E9,5.601196E8,1.5981683E8,8.431583E8,1.8115985E9,0E0,0E0,0E0,0E0,0E0,0E0,0E0,0E0],"parents":[2147483647,0,0,1,1,2,2,3,3,4,4,5,5,6,6],"right_children":[2,4,6,8,10,12,14,-1,-1,-1,-1,-1,-1,-1,-1],"split_conditions":[6E0,5E0,6.25E0,3.75E0,4E0,1.875E1,2E1,-2.648049E1,2.6058753E0,-2.6648771E1,-5.1891266E1,4.908466E1,1.7784111E1,7.2061615E0,-2.7008442E1],"split_indices":[1,3,0,5,4,5,1,0,0,0,0,0,0,0,0],"split_type":[0,0,0,0,0,0,0,0,0,0,0,0,0,0,0],"sum_hessian":[3.9384E4,9.791E3,2.9593E4,7.045E3,2.746E3,6.363E3,2.323E4,4.388E3,2.657E3,9.77E2,1.769E3,4.209E3,2.154E3,1.8327E4,4.903E3],"tree_param":{"num_deleted":"0","num_feature":"11","num_nodes":"15","size_leaf_vector":"1"}},{"base_weights":[-5.218292E0,-4.7617142E2,6.768885E2,-7.8596313E2,-1.9057602E2,4.2907468E2,1.153844E3,-5.2815815E1,-3.21129E1,1.0126982E0,-1.5555188E1,3.1772165E1,1.5977737E1,4.8247555E1,7.640641E1],"categories":[],"categories_nodes":[],"categories_segments":[],"categories_sizes":[],"default_left":[0,0,0,0,0,0,0,0,0,0,0,0,0,0,0],"id":20,"left_children":[1,3,5,7,9,11,13,-1,-1,-1,-1,-1,-1,-1,-1],"loss_changes":[1.2632134E10,2.0579594E9,1.8978534E9,4.3282125E8,3.0760458E8,2.3871693E8,3.8673613E8,0E0,0E0,0E0,0E0,0E0,0E0,0E0,0E0],"parents":[2147483647,0,0,1,1,2,2,3,3,4,4,5,5,6,6],"right_children":[2,4,6,8,10,12,14,-1,-1,-1,-1,-1,-1,-1,-1],"split_conditions":[9.61421E3,8.351503E3,1.0799367E4,7.4896973E3,1.025E1,1.125E1,1.1662758E4,-5.2815815E1,-3.21129E1,1.0126982E0,-1.5555188E1,3.1772165E1,1.5977737E1,4.8247555E1,7.640641E1],"split_indices":[10,10,10,10,5,5,10,0,0,0,0,0,0,0,0],"split_type":[0,0,0,0,0,0,0,0,0,0,0,0,0,0,0],"sum_hessian":[3.9321E4,2.3261E4,1.606E4,1.1157E4,1.2104E4,1.057E4,5.49E3,3.87E3,7.287E3,4.403E3,7.701E3,3.663E3,6.907E3,3.651E3,1.839E3],"tree_param":{"num_deleted":"0","num_feature":"11","num_nodes":"15","size_leaf_vector":"1"}},{"base_weights":[-2.241164E0,3.1811432E2,-3.2191342E2,4.217792E1,7.112487E2,-5.672159E2,-1.0747944E2,1.117698E1,-1.9513775E1,4.4257652E1,1.2898074E1,-1.8447212E1,-4.1115284E1,1.0894014E1,-1.2866401E1],"categories":[],"categories_nodes":[],"categories_segments":[],"categories_sizes":[],"default_left":[0,0,0,0,0,0,0,0,0,0,0,0,0,0,0],"id":21,"left_children":[1,3,5,7,9,11,13,-1,-1,-1,-1,-1,-1,-1,-1],"loss_changes":[4.02999E9,2.1321458E9,1.0360247E9,9.059592E8,6.3875635E8,4.6434765E8,5.125165E8,0E0,0E0,0E0,0E0,0E0,0E0,0E0,0E0],"parents":[2147483647,0,0,1,1,2,2,3,3,4,4,5,5,6,6],"right_children":[2,4,6,8,10,12,14,-1,-1,-1,-1,-1,-1,-1,-1],"split_conditions":[6.123234E-17,5E-1,6.123234E-17,5E0,5E0,7.933533E-1,-5E-1,1.117698E1,-1.9513775E1,4.4257652E1,1.2898074E1,-1.8447212E1,-4.1115284E1,1.0894014E1,-1.2866401E1],"split_indices":[7,9,9,3,3,7,6,0,0,0,0,0,0,0,0],"split_type":[0,0,0,0,0,0,0,0,0,0,0,0,0,0,0],"sum_hessian":[3.935E4,1.9654E4,1.9696E4,1.1549E4,8.105E3,9.186E3,1.051E4,8.137E3,3.412E3,5.857E3,2.248E3,5.17E3,4.016E3,3.314E3,7.196E3],"tree_param":{"num_deleted":"0","num_feature":"11","num_nodes":"15","size_leaf_vector":"1"}},{"base_weights":[-2.7577844E0,3.0107208E2,-3.0593484E2,6.069108E2,8.783066E0,6.700127E1,-4.189834E2,3.8692646E1,1.5392348E1,9.057527E0,-2.0392668E1,2.1446203E1,-2.133633E0,-1.1459356E1,-3.1197845E1],"categories":[],"categories_nodes":[],"categories_segments":[],"categories_sizes":[],"default_left":[0,0,0,0,0,0,0,0,0,0,0,0,0,0,0],"id":22,"left_children":[1,3,5,7,9,11,13,-1,-1,-1,-1,-1,-1,-1,-1],"loss_changes":[3.5981673E9,1.7440582E9,8.243378E8,6.388746E8,7.165678E8,1.8058402E8,5.8356045E8,0E0,0E0,0E0,0E0,0E0,0E0,0E0,0E0],"parents":[2147483647,0,0,1,1,2,2,3,3,4,4,5,5,6,6],"right_children":[2,4,6,8,10,12,14,-1,-1,-1,-1,-1,-1,-1,-1],"split_conditions":[6.123234E-17,1.205E1,3E0,5E0,5E0,2.5E-1,7.518398E-1,3.8692646E1,1.5392348E1,9.057527E0,-2.0392668E1,2.1446203E1,-2.133633E0,-1.1459356E1,-3.1197845E1],"split_indices":[7,0,4,3,3,0,7,0,0,0,0,0,0,0,0],"split_type":[0,0,0,0,0,0,0,0,0,0,0,0,0,0,0],"sum_hessian":[3.906E4,1.9509E4,1.9551E4,9.533E3,9.976E3,4.548E3,1.5003E4,6.868E3,2.665E3,7.057E3,2.919E3,1.057E3,3.491E3,7.791E3,7.212E3],"tree_param":{"num_deleted":"0","num_feature":"11","num_nodes":"15","size_leaf_vector":"1"}},{"base_weights":[-6.8547064E-1,-2.701891E2,2.3357727E2,-1.2089575E2,-6.45485E2,-2.039656E2,3.9613513E2,-3.238208E1,-1.590978E0,-4.8413826E1,-2.5936178E1,-3.3936977E0,-2.7232817E1,2.7228186E1,-3.186496E0],"categories":[],"categories_nodes":[],"categories_segments":[],"categories_sizes":[],"default_left":[0,0,0,0,0,0,0,0,0,0,0,0,0,0,0],"id":23,"left_children":[1,3,5,7,9,11,13,-1,-1,-1,-1,-1,-1,-1,-1],"loss_changes":[2.4755732E9,1.0215579E9,1.4920914E9,6.1210445E8,2.118185E8,2.6345618E8,1.0440274E9,0E0,0E0,0E0,0E0,0E0,0E0,0E0,0E0],"parents":[2147483647,0,0,1,1,2,2,3,3,4,4,5,5,6,6],"right_children":[2,4,6,8,10,12,14,-1,-1,-1,-1,-1,-1,-1,-1],"split_conditions":[6.123234E-17,5E0,6.5E0,3.5E0,6.75E0,5E0,1.975E1,-3.238208E1,-1.590978E0,-4.8413826E1,-2.5936178E1,-3.3936977E0,-2.7232817E1,2.7228186E1,-3.186496E0],"split_indices":[9,3,5,5,5,3,5,0,0,0,0,0,0,0,0],"split_type":[0,0,0,0,0,0,0,0,0,0,0,0,0,0,0],"sum_hessian":[3.9209E4,1.8233E4,2.0976E4,1.3045E4,5.188E3,5.682E3,1.5294E4,1.886E3,1.1159E4,1.461E3,3.727E3,4.061E3,1.621E3,1.1562E4,3.732E3],"tree_param":{"num_deleted":"0","num_feature":"11","num_nodes":"15","size_leaf_vector":"1"}},{"base_weights":[-4.019372E0,4.0524396E2,-1.2800624E2,-3.6076443E1,5.760224E2,8.632102E0,-4.6026447E2,4.863846E0,-1.959129E1,3.7704742E1,8.2877E0,-2.5094437E1,5.220205E0,-3.983534E1,-1.6061365E1],"categories":[],"categories_nodes":[],"categories_segments":[],"categories_sizes":[],"default_left":[0,0,0,0,0,0,0,0,0,0,0,0,0,0,0],"id":24,"left_children":[1,3,5,7,9,11,13,-1,-1,-1,-1,-1,-1,-1,-1],"loss_changes":[1.986854E9,6.861714E8,1.3642957E9,1.2058409E8,4.794245E8,1.0412416E9,4.0937907E8,0E0,0E0,0E0,0E0,0E0,0E0,0E0,0E0],"parents":[2147483647,0,0,1,1,2,2,3,3,4,4,5,5,6,6],"right_children":[2,4,6,8,10,12,14,-1,-1,-1,-1,-1,-1,-1,-1],"split_conditions":[3E0,6.75E0,5E0,5E0,1.875E1,3.75E0,7E0,4.863846E0,-1.959129E1,3.7704742E1,8.2877E0,-2.5094437E1,5.220205E0,-3.983534E1,-1.6061365E1],"split_indices":[4,5,3,3,5,5,1,0,0,0,0,0,0,0,0],"split_type":[0,0,0,0,0,0,0,0,0,0,0,0,0,0,0],"sum_hessian":[3.9153E4,9.103E3,3.005E4,2.54E3,6.563E3,2.1294E4,8.756E3,1.848E3,6.92E2,4.576E3,1.987E3,3.363E3,1.7931E4,2.559E3,6.197E3],"tree_param":{"num_deleted":"0","num_feature":"11","num_nodes":"15","size_leaf_vector":"1"}},{"base_weights":[-1.1930448E0,2.5554962E2,-2.914559E2,2.5800844E1,5.831365E2,-5.1032187E2,-9.891163E1,8.967387E0,-1.7273005E1,3.7352745E1,7.2044E0,-1.727528E1,-3.6718517E1,1.7348742E1,-7.7260537E0],"categories":[],"categories_nodes":[],"categories_segments":[],"categories_sizes":[],"default_left":[0,0,0,0,0,0,0,0,0,0,0,0,0,0,0],"id":25,"left_children":[1,3,5,7,9,11,13,-1,-1,-1,-1,-1,-1,-1,-1],"loss_changes":[2.927184E9,1.568685E9,7.768681E8,6.98499E8,6.182418E8,3.1835085E8,2.4327258E8,0E0,0E0,0E0,0E0,0E0,0E0,0E0,0E0],"parents":[2147483647,0,0,1,1,2,2,3,3,4,4,5,5,6,6],"right_children":[2,4,6,8,10,12,14,-1,-1,-1,-1,-1,-1,-1,-1],"split_conditions":[1.3052619E-1,5E-1,6.123234E-17,5E0,5E0,8.314696E-1,2.5E-2,8.967387E0,-1.7273005E1,3.7352745E1,7.2044E0,-1.727528E1,-3.6718517E1,1.7348742E1,-7.7260537E0],"split_indices":[7,9,9,3,3,7,0,0,0,0,0,0,0,0,0],"split_type":[0,0,0,0,0,0,0,0,0,0,0,0,0,0,0],"sum_hessian":[3.9277E4,2.0842E4,1.8435E4,1.2251E4,8.591E3,8.627E3,9.808E3,8.667E3,3.584E3,6.255E3,2.336E3,4.972E3,3.655E3,1.087E3,8.721E3],"tree_param":{"num_deleted":"0","num_feature":"11","num_nodes":"15","size_leaf_vector":"1"}},{"base_weights":[-1.5460624E0,-4.3071832E2,5.1086057E2,-7.138561E2,-2.4369423E2,2.981289E2,9.203125E2,-5.2413204E1,-3.1585882E1,1.574026E0,-1.7703062E1,7.249851E0,2.1843054E1,3.70014E1,6.248846E1],"categories":[],"categories_nodes":[],"categories_segments":[],"categories_sizes":[],"default_left":[0,0,0,0,0,0,0,0,0,0,0,0,0,0,0],"id":26,"left_children":[1,3,5,7,9,11,13,-1,-1,-1,-1,-1,-1,-1,-1],"loss_changes":[8.632375E9,1.1310205E9,1.5581788E9,2.3273114E8,3.9075437E8,2.5010963E8,3.6240128E8,0E0,0E0,0E0,0E0,0E0,0E0,0E0,0E0],"parents":[2147483647,0,0,1,1,2,2,3,3,4,4,5,5,6,6],"right_children":[2,4,6,8,10,12,14,-1,-1,-1,-1,-1,-1,-1,-1],"split_conditions":[9.420843E3,8.086775E3,1.0695155E4,7.1322173E3,6.25E0,9.980563E3,1.1561326E4,-5.2413204E1,-3.1585882E1,1.574026E0,-1.7703062E1,7.249851E0,2.1843054E1,3.70014E1,6.248846E1],"split_indices":[10,10,10,10,5,10,10,0,0,0,0,0,0,0,0],"split_type":[0,0,0,0,0,0,0,0,0,0,0,0,0,0,0],"sum_hessian":[3.9252E4,2.1361E4,1.7891E4,8.496E3,1.2865E4,1.1775E4,6.116E3,1.673E3,6.823E3,3.683E3,9.182E3,5.598E3,6.177E3,3.955E3,2.161E3],"tree_param":{"num_deleted":"0","num_feature":"11","num_nodes":"15","size_leaf_vector":"1"}},{"base_weights":[-8.3511907E-1,1.2247509E2,-3.085217E2,-3.413878E2,2.1648367E2,-6.165699E2,-1.6946103E2,5.912444E-1,-2.0069258E1,3.226588E1,5.0846043E0,-2.2078083E1,-3.9506203E1,5.626657E0,-1.8397924E1],"categories":[],"categories_nodes":[],"categories_segments":[],"categories_sizes":[],"default_left":[0,0,0,0,0,0,0,0,0,0,0,0,0,0,0],"id":27,"left_children":[1,3,5,7,9,11,13,-1,-1,-1,-1,-1,-1,-1,-1],"loss_changes":[1.4856516E9,1.2190665E9,4.7980294E8,9.983936E7,1.1441559E9,1.0547187E8,4.321694E8,0E0,0E0,0E0,0E0,0E0,0E0,0E0,0E0],"parents":[2147483647,0,0,1,1,2,2,3,3,4,4,5,5,6,6],"right_children":[2,4,6,8,10,12,14,-1,-1,-1,-1,-1,-1,-1,-1],"split_conditions":[5E0,4E0,7.5E0,2.9375E0,5.8E0,6E0,1.0325E1,5.912444E-1,-2.0069258E1,3.226588E1,5.0846043E0,-2.2078083E1,-3.9506203E1,5.626657E0,-1.8397924E1],"split_indices":[3,1,5,0,0,3,0,0,0,0,0,0,0,0,0],"split_type":[0,0,0,0,0,0,0,0,0,0,0,0,0,0,0],"sum_hessian":[3.9155E4,2.7953E4,1.1202E4,4.71E3,2.3243E4,3.483E3,7.719E3,6.84E2,4.026E3,4.907E3,1.8336E4,1.736E3,1.747E3,3.189E3,4.53E3],"tree_param":{"num_deleted":"0","num_feature":"11","num_nodes":"15","size_leaf_vector":"1"}},{"base_weights":[-2.2174697E0,-2.538319E2,1.7131914E2,-1.3963766E2,-5.413877E2,-1.7127522E2,2.9903485E2,-4.103244E0,-3.1686789E1,-3.9750168E1,-2.2139164E1,-2.5744855E0,-2.3425108E1,2.2385574E1,-3.777769E0],"categories":[],"categories_nodes":[],"categories_segments":[],"categories_sizes":[],"default_left":[0,0,0,0,0,0,0,0,0,0,0,0,0,0,0],"id":28,"left_children":[1,3,5,7,9,11,13,-1,-1,-1,-1,-1,-1,-1,-1],"loss_changes":[1.7185398E9,5.2745414E8,1.01922906E9,3.2708403E8,1.1383309E8,2.252035E8,9.450295E8,0E0,0E0,0E0,0E0,0E0,0E0,0E0,0E0],"parents":[2147483647,0,0,1,1,2,2,3,3,4,4,5,5,6,6],"right_children":[2,4,6,8,10,12,14,-1,-1,-1,-1,-1,-1,-1,-1],"split_conditions":[-1.8369701E-16,5E0,6.5E0,2.15E1,6.75E0,5E0,1.9E1,-4.103244E0,-3.1686789E1,-3.9750168E1,-2.2139164E1,-2.5744855E0,-2.3425108E1,2.2385574E1,-3.777769E0],"split_indices":[9,3,5,5,5,3,1,0,0,0,0,0,0,0,0],"split_type":[0,0,0,0,0,0,0,0,0,0,0,0,0,0,0],"sum_hessian":[3.9356E4,1.6064E4,2.3292E4,1.1499E4,4.565E3,6.325E3,1.6967E4,1.03E4,1.199E3,1.276E3,3.289E3,4.509E3,1.816E3,1.2146E4,4.821E3],"tree_param":{"num_deleted":"0","num_feature":"11","num_nodes":"15","size_leaf_vector":"1"}},{"base_weights":[-8.8658917E-1,-2.3952939E2,1.6208827E2,-1.3001047E2,-5.151455E2,-1.6585614E2,2.8335086E2,-4.1037765E0,-3.2747505E1,-3.7677883E1,-2.0986235E1,-2.590468E0,-2.2267893E1,2.0672085E1,-4.7514987E0],"categories":[],"categories_nodes":[],"categories_segments":[],"categories_sizes":[],"default_left":[0,0,0,0,0,0,0,0,0,0,0,0,0,0,0],"id":29,"left_children":[1,3,5,7,9,11,13,-1,-1,-1,-1,-1,-1,-1,-1],"loss_changes":[1.5286028E9,4.813563E8,9.287747E8,2.8718125E8,1.0285261E8,2.0095683E8,8.393057E8,0E0,0E0,0E0,0E0,0E0,0E0,0E0,0E0],"parents":[2147483647,0,0,1,1,2,2,3,3,4,4,5,5,6,6],"right_children":[2,4,6,8,10,12,14,-1,-1,-1,-1,-1,-1,-1,-1],"split_conditions":[-1.8369701E-16,5E0,6.5E0,2.2E1,6.75E0,5E0,1.95E1,-4.1037765E0,-3.2747505E1,-3.7677883E1,-2.0986235E1,-2.590468E0,-2.2267893E1,2.0672085E1,-4.7514987E0],"split_indices":[9,3,5,1,5,3,5,0,0,0,0,0,0,0,0],"split_type":[0,0,0,0,0,0,0,0,0,0,0,0,0,0,0],"sum_hessian":[3.9301E4,1.5948E4,2.3353E4,1.1414E4,4.534E3,6.304E3,1.7049E4,1.046E4,9.54E2,1.294E3,3.24E3,4.478E3,1.826E3,1.2687E4,4.362E3],"tree_param":{"num_deleted":"0","num_feature":"11","num_nodes":"15","size_leaf_vector":"1"}},{"base_weights":[2.2342308E-1,2.268873E2,-2.2607074E2,7.0321136E2,1.11056854E2,1.06753365E2,-3.099314E2,4.3305367E1,2.0356705E1,1.1674197E1,-9.761298E0,2.1077688E1,-2.017153E-1,-8.844981E0,-2.4294363E1],"categories":[],"categories_nodes":[],"categories_segments":[],"categories_sizes":[],"default_left":[0,0,0,0,0,0,0,0,0,0,0,0,0,0,0],"id":30,"left_children":[1,3,5,7,9,11,13,-1,-1,-1,-1,-1,-1,-1,-1],"loss_changes":[2.0108794E9,1.080537E9,5.475884E8,2.43307E8,5.908531E8,1.3772704E8,3.6671258E8,0E0,0E0,0E0,0E0,0E0,0E0,0E0,0E0],"parents":[2147483647,0,0,1,1,2,2,3,3,4,4,5,5,6,6],"right_children":[2,4,6,8,10,12,14,-1,-1,-1,-1,-1,-1,-1,-1],"split_conditions":[6.123234E-17,6.25E0,4.225E0,5E0,5E0,-5E-1,7.933533E-1,4.3305367E1,2.0356705E1,1.1674197E1,-9.761298E0,2.1077688E1,-2.017153E-1,-8.844981E0,-2.4294363E1],"split_indices":[7,0,0,3,3,6,7,0,0,0,0,0,0,0,0],"split_type":[0,0,0,0,0,0,0,0,0,0,0,0,0,0,0],"sum_hessian":[3.9202E4,1.9585E4,1.9617E4,3.83E3,1.5755E4,3.948E3,1.5669E4,2.749E3,1.081E3,1.1256E4,4.499E3,1.027E3,2.921E3,8.924E3,6.745E3],"tree_param":{"num_deleted":"0","num_feature":"11","num_nodes":"15","size_leaf_vector":"1"}},{"base_weights":[1.6366616E-1,-3.2431662E2,5.0386923E2,-5.298272E2,-9.216199E1,3.6785208E2,9.5495306E2,-4.414925E1,-2.3174706E1,4.4888153E0,-8.9541235E0,1.26584425E1,2.601567E1,4.190466E1,6.8082664E1],"categories":[],"categories_nodes":[],"categories_segments":[],"categories_sizes":[],"default_left":[0,0,0,0,0,0,0,0,0,0,0,0,0,0,0],"id":31,"left_children":[1,3,5,7,9,11,13,-1,-1,-1,-1,-1,-1,-1,-1],"loss_changes":[6.411359E9,1.1382221E9,9.4261606E8,2.960476E8,2.4209936E8,2.063634E8,1.6805504E8,0E0,0E0,0E0,0E0,0E0,0E0,0E0,0E0],"parents":[2147483647,0,0,1,1,2,2,3,3,4,4,5,5,6,6],"right_children":[2,4,6,8,10,12,14,-1,-1,-1,-1,-1,-1,-1,-1],"split_conditions":[9.688119E3,8.51627E3,1.1202746E4,7.1960425E3,7E0,1.0351371E4,1.2165586E4,-4.414925E1,-2.3174706E1,4.4888153E0,-8.9541235E0,1.26584425E1,2.601567E1,4.190466E1,6.8082664E1],"split_indices":[10,10,10,10,1,10,10,0,0,0,0,0,0,0,0],"split_type":[0,0,0,0,0,0,0,0,0,0,0,0,0,0,0],"sum_hessian":[3.9225E4,2.3857E4,1.5368E4,1.2654E4,1.1203E4,1.1809E4,3.559E3,1.999E3,1.0655E4,2.724E3,8.479E3,6.741E3,5.068E3,2.767E3,7.92E2],"tree_param":{"num_deleted":"0","num_feature":"11","num_nodes":"15","size_leaf_vector":"1"}},{"base_weights":[-1.3242352E0,2.9395306E2,-9.092329E1,-7.6658006E0,4.1208676E2,6.8274436E0,-3.2997086E2,1.6506338E1,-4.8312287E0,3.1772247E1,1.1210143E1,-1.8959389E1,3.7295914E0,-2.8590586E1,-1.1352107E1],"categories":[],"categories_nodes":[],"categories_segments":[],"categories_sizes":[],"default_left":[0,0,0,0,0,0,0,0,0,0,0,0,0,0,0],"id":32,"left_children":[1,3,5,7,9,11,13,-1,-1,-1,-1,-1,-1,-1,-1],"loss_changes":[1.03939936E9,3.2588755E8,7.043091E8,7.740964E7,2.7565414E8,5.596543E8,2.1762854E8,0E0,0E0,0E0,0E0,0E0,0E0,0E0,0E0],"parents":[2147483647,0,0,1,1,2,2,3,3,4,4,5,5,6,6],"right_children":[2,4,6,8,10,12,14,-1,-1,-1,-1,-1,-1,-1,-1],"split_conditions":[3E0,6.75E0,5E0,-4.5000002E-1,4.65E0,3.5E0,7.25E0,1.6506338E1,-4.8312287E0,3.1772247E1,1.1210143E1,-1.8959389E1,3.7295914E0,-2.8590586E1,-1.1352107E1],"split_indices":[4,5,3,0,0,5,5,0,0,0,0,0,0,0,0],"split_type":[0,0,0,0,0,0,0,0,0,0,0,0,0,0,0],"sum_hessian":[3.9285E4,9.145E3,3.014E4,2.574E3,6.571E3,2.1393E4,8.747E3,5.36E2,2.038E3,3.001E3,3.57E3,3.194E3,1.8199E4,2.61E3,6.137E3],"tree_param":{"num_deleted":"0","num_feature":"11","num_nodes":"15","size_leaf_vector":"1"}},{"base_weights":[-1.6805491E0,1.4378601E2,-2.7846167E2,2.6559637E2,-1.603943E2,-1.526062E2,-4.7119717E2,9.924722E-1,2.1660795E1,-2.7326157E1,-2.4231694E0,1.0590703E1,-9.6095495E0,-1.7333254E1,-2.9598068E1],"categories":[],"categories_nodes":[],"categories_segments":[],"categories_sizes":[],"default_left":[0,0,0,0,0,0,0,0,0,0,0,0,0,0,0],"id":33,"left_children":[1,3,5,7,9,11,13,-1,-1,-1,-1,-1,-1,-1,-1],"loss_changes":[1.5761116E9,9.5080474E8,3.2705568E8,7.547521E8,3.1712006E8,1.1775278E8,7.990758E7,0E0,0E0,0E0,0E0,0E0,0E0,0E0,0E0],"parents":[2147483647,0,0,1,1,2,2,3,3,4,4,5,5,6,6],"right_children":[2,4,6,8,10,12,14,-1,-1,-1,-1,-1,-1,-1,-1],"split_conditions":[5E-1,5E0,1.08375E1,-1.8369701E-16,7.75E0,2.5E-2,8.660254E-1,9.924722E-1,2.1660795E1,-2.7326157E1,-2.4231694E0,1.0590703E1,-9.6095495E0,-1.7333254E1,-2.9598068E1],"split_indices":[7,3,0,9,5,0,7,0,0,0,0,0,0,0,0],"split_type":[0,0,0,0,0,0,0,0,0,0,0,0,0,0,0],"sum_hessian":[3.9144E4,2.5659E4,1.3485E4,1.8322E4,7.337E3,8.159E3,5.326E3,7.43E3,1.0892E4,1.648E3,5.689E3,7.99E2,7.36E3,2.624E3,2.702E3],"tree_param":{"num_deleted":"0","num_feature":"11","num_nodes":"15","size_leaf_vector":"1"}},{"base_weights":[-1.5280554E0,1.8756526E2,-1.9724684E2,6.7940564E2,1.0666915E2,-7.7886456E-1,-3.0776102E2,4.237268E1,1.9651869E1,8.729178E0,-1.5022214E1,4.0384464E0,-7.713497E0,-9.779268E0,-2.3648281E1],"categories":[],"categories_nodes":[],"categories_segments":[],"categories_sizes":[],"default_left":[0,0,0,0,0,0,0,0,0,0,0,0,0,0,0],"id":34,"left_children":[1,3,5,7,9,11,13,-1,-1,-1,-1,-1,-1,-1,-1],"loss_changes":[1.4487589E9,7.921061E8,4.176613E8,1.7397069E8,4.728204E8,1.0848943E8,2.2805402E8,0E0,0E0,0E0,0E0,0E0,0E0,0E0,0E0],"parents":[2147483647,0,0,1,1,2,2,3,3,4,4,5,5,6,6],"right_children":[2,4,6,8,10,12,14,-1,-1,-1,-1,-1,-1,-1,-1],"split_conditions":[6.5403126E-2,4.55E0,7.3624997E0,5E0,6E0,5E0,8.314696E-1,4.237268E1,1.9651869E1,8.729178E0,-1.5022214E1,4.0384464E0,-7.713497E0,-9.779268E0,-2.3648281E1],"split_indices":[7,0,0,3,3,3,7,0,0,0,0,0,0,0,0],"split_type":[0,0,0,0,0,0,0,0,0,0,0,0,0,0,0],"sum_hessian":[3.9144E4,1.9909E4,1.9235E4,2.811E3,1.7098E4,6.925E3,1.231E4,1.959E3,8.52E2,1.4654E4,2.444E3,4.917E3,2.008E3,7.333E3,4.977E3],"tree_param":{"num_deleted":"0","num_feature":"11","num_nodes":"15","size_leaf_vector":"1"}},{"base_weights":[1.1169547E0,-3.393464E2,3.7885782E2,-5.608153E2,-2.102037E2,2.0072054E2,6.799559E2,-2.162209E1,-3.9389206E1,9.8778534E-1,-1.607572E1,1.9019833E1,5.616035E0,2.6554361E1,4.6126022E1],"categories":[],"categories_nodes":[],"categories_segments":[],"categories_sizes":[],"default_left":[0,0,0,0,0,0,0,0,0,0,0,0,0,0,0],"id":35,"left_children":[1,3,5,7,9,11,13,-1,-1,-1,-1,-1,-1,-1,-1],"loss_changes":[5.059653E9,5.916964E8,1.0001902E9,2.2171085E8,3.7415917E8,1.8609408E8,2.498263E8,0E0,0E0,0E0,0E0,0E0,0E0,0E0,0E0],"parents":[2147483647,0,0,1,1,2,2,3,3,4,4,5,5,6,6],"right_children":[2,4,6,8,10,12,14,-1,-1,-1,-1,-1,-1,-1,-1],"split_conditions":[9.360032E3,7.999958E3,1.057762E4,4.75E0,6.25E0,1.125E1,1.1430418E4,-2.162209E1,-3.9389206E1,9.8778534E-1,-1.607572E1,1.9019833E1,5.616035E0,2.6554361E1,4.6126022E1],"split_indices":[10,10,10,5,5,5,10,0,0,0,0,0,0,0,0],"split_type":[0,0,0,0,0,0,0,0,0,0,0,0,0,0,0],"sum_hessian":[3.934E4,2.0691E4,1.8649E4,7.62E3,1.3071E4,1.1718E4,6.931E3,4.869E3,2.751E3,3.924E3,9.147E3,3.863E3,7.855E3,4.297E3,2.634E3],"tree_param":{"num_deleted":"0","num_feature":"11","num_nodes":"15","size_leaf_vector":"1"}},{"base_weights":[-2.071972E0,8.437863E1,-2.1689587E2,-2.6205646E2,1.4474297E2,-4.278318E2,-1.20839066E2,-2.5849522E1,-9.883347E0,2.2842022E1,3.031034E0,-1.3840201E1,-2.8969501E1,5.9295955E0,-1.2321577E1],"categories":[],"categories_nodes":[],"categories_segments":[],"categories_sizes":[],"default_left":[0,0,0,0,0,0,0,0,0,0,0,0,0,0,0],"id":36,"left_children":[1,3,5,7,9,11,13,-1,-1,-1,-1,-1,-1,-1,-1],"loss_changes":[7.2817574E8,5.847046E8,2.279142E8,6.8004E7,6.250885E8,8.041056E7,2.3253606E8,0E0,0E0,0E0,0E0,0E0,0E0,0E0,0E0],"parents":[2147483647,0,0,1,1,2,2,3,3,4,4,5,5,6,6],"right_children":[2,4,6,8,10,12,14,-1,-1,-1,-1,-1,-1,-1,-1],"split_conditions":[5E0,3.5E0,7.5E0,1E0,5.8E0,6E0,9.125E0,-2.5849522E1,-9.883347E0,2.2842022E1,3.031034E0,-1.3840201E1,-2.8969501E1,5.9295955E0,-1.2321577E1],"split_indices":[3,5,5,3,0,3,0,0,0,0,0,0,0,0,0],"split_type":[0,0,0,0,0,0,0,0,0,0,0,0,0,0,0],"sum_hessian":[3.9207E4,2.7957E4,1.125E4,4.148E3,2.3809E4,3.519E3,7.731E3,8.35E2,3.313E3,5.054E3,1.8755E4,1.764E3,1.755E3,2.66E3,5.071E3],"tree_param":{"num_deleted":"0","num_feature":"11","num_nodes":"15","size_leaf_vector":"1"}},{"base_weights":[-3.1658155E-1,-2.5559769E2,4.391668E2,-4.3425415E2,-6.2137997E1,3.2937042E2,8.189828E2,-1.5050893E1,-2.953887E1,4.589228E0,-6.7874093E0,2.3924454E1,1.2639889E1,3.707249E1,6.3683643E1],"categories":[],"categories_nodes":[],"categories_segments":[],"categories_sizes":[],"default_left":[0,0,0,0,0,0,0,0,0,0,0,0,0,0,0],"id":37,"left_children":[1,3,5,7,9,11,13,-1,-1,-1,-1,-1,-1,-1,-1],"loss_changes":[4.3974697E9,8.569238E8,6.0032896E8,2.686377E8,1.8719018E8,1.2746842E8,1.1288883E8,0E0,0E0,0E0,0E0,0E0,0E0,0E0,0E0],"parents":[2147483647,0,0,1,1,2,2,3,3,4,4,5,5,6,6],"right_children":[2,4,6,8,10,12,14,-1,-1,-1,-1,-1,-1,-1,-1],"split_conditions":[9.778572E3,8.531003E3,1.128242E4,5.25E0,7.25E0,1.1E1,1.2396845E4,-1.5050893E1,-2.953887E1,4.589228E0,-6.7874093E0,2.3924454E1,1.2639889E1,3.707249E1,6.3683643E1],"split_indices":[10,10,10,5,5,1,10,0,0,0,0,0,0,0,0],"split_type":[0,0,0,0,0,0,0,0,0,0,0,0,0,0,0],"sum_hessian":[3.9194E4,2.4793E4,1.4401E4,1.2889E4,1.1904E4,1.1173E4,3.228E3,6.964E3,5.925E3,2.841E3,9.063E3,3.789E3,7.384E3,2.76E3,4.68E2],"tree_param":{"num_deleted":"0","num_feature":"11","num_nodes":"15","size_leaf_vector":"1"}},{"base_weights":[-2.3555486E0,1.0893048E2,-2.3666217E2,-7.556289E1,2.3638678E2,-1.3132796E2,-4.0517853E2,-9.580699E-1,-2.1129244E1,1.6825798E1,-4.4814608E-1,9.340362E0,-8.077624E0,-1.7947538E1,-3.2262875E1],"categories":[],"categories_nodes":[],"categories_segments":[],"categories_sizes":[],"default_left":[0,0,0,0,0,0,0,0,0,0,0,0,0,0,0],"id":38,"left_children":[1,3,5,7,9,11,13,-1,-1,-1,-1,-1,-1,-1,-1],"loss_changes":[1.0213334E9,6.24478E8,2.238343E8,2.1237371E8,3.858471E8,7.467514E7,5.3606336E7,0E0,0E0,0E0,0E0,0E0,0E0,0E0,0E0],"parents":[2147483647,0,0,1,1,2,2,3,3,4,4,5,5,6,6],"right_children":[2,4,6,8,10,12,14,-1,-1,-1,-1,-1,-1,-1,-1],"split_conditions":[5.5557024E-1,-1.8369701E-16,1.095E1,6E0,5E0,-2.375E-1,2.275E1,-9.580699E-1,-2.1129244E1,1.6825798E1,-4.4814608E-1,9.340362E0,-8.077624E0,-1.7947538E1,-3.2262875E1],"split_indices":[7,9,0,3,3,0,5,0,0,0,0,0,0,0,0],"split_type":[0,0,0,0,0,0,0,0,0,0,0,0,0,0,0],"sum_hessian":[3.9167E4,2.6555E4,1.2612E4,1.085E4,1.5705E4,7.762E3,4.85E3,9.334E3,1.516E3,1.1153E4,4.552E3,6.73E2,7.089E3,4.069E3,7.81E2],"tree_param":{"num_deleted":"0","num_feature":"11","num_nodes":"15","size_leaf_vector":"1"}},{"base_weights":[9.5668215E-1,-1.6241989E2,1.1326841E2,-9.0561554E1,-3.433929E2,-8.8825356E1,1.9250372E2,-9.0064E0,4.8196206E0,-2.637161E1,-1.37410755E1,-1.5053719E0,-2.1890745E1,1.2964511E1,-1.0097152E1],"categories":[],"categories_nodes":[],"categories_segments":[],"categories_sizes":[],"default_left":[0,0,0,0,0,0,0,0,0,0,0,0,0,0,0],"id":39,"left_children":[1,3,5,7,9,11,13,-1,-1,-1,-1,-1,-1,-1,-1],"loss_changes":[7.2286304E8,2.0867683E8,3.7385574E8,1.9239837E8,5.741408E7,1.3474182E8,4.418628E8,0E0,0E0,0E0,0E0,0E0,0E0,0E0,0E0],"parents":[2147483647,0,0,1,1,2,2,3,3,4,4,5,5,6,6],"right_children":[2,4,6,8,10,12,14,-1,-1,-1,-1,-1,-1,-1,-1],"split_conditions":[-1.8369701E-16,5E0,6.75E0,5.5557024E-1,6.5E0,6E0,2.15E1,-9.0064E0,4.8196206E0,-2.637161E1,-1.37410755E1,-1.5053719E0,-2.1890745E1,1.2964511E1,-1.0097152E1],"split_indices":[9,3,5,6,5,3,5,0,0,0,0,0,0,0,0],"split_type":[0,0,0,0,0,0,0,0,0,0,0,0,0,0,0],"sum_hessian":[3.9393E4,1.6048E4,2.3345E4,1.1488E4,4.56E3,6.575E3,1.677E4,7.767E3,3.721E3,1.236E3,3.324E3,5.629E3,9.46E2,1.4342E4,2.428E3],"tree_param":{"num_deleted":"0","num_feature":"11","num_nodes":"15","size_leaf_vector":"1"}},{"base_weights":[5.0310284E-1,-1.5537852E2,1.0730377E2,-1.1233799E2,-4.2314395E2,1.5691153E2,-1.8764525E2,-3.9363785E0,-2.4195242E1,-3.1274557E1,-1.70762E1,-5.696099E0,1.0769602E1,-2.1265717E1,-2.968645E0],"categories":[],"categories_nodes":[],"categories_segments":[],"categories_sizes":[],"default_left":[0,0,0,0,0,0,0,0,0,0,0,0,0,0,0],"id":40,"left_children":[1,3,5,7,9,11,13,-1,-1,-1,-1,-1,-1,-1,-1],"loss_changes":[6.5151315E8,1.8332304E8,3.398228E8,1.7116699E8,3.617011E7,3.148935E8,1.0192116E8,0E0,0E0,0E0,0E0,0E0,0E0,0E0,0E0],"parents":[2147483647,0,0,1,1,2,2,3,3,4,4,5,5,6,6],"right_children":[2,4,6,8,10,12,14,-1,-1,-1,-1,-1,-1,-1,-1],"split_conditions":[-1.8369701E-16,6E0,6E0,2.2E1,7E0,4.25E0,8.5E0,-3.9363785E0,-2.4195242E1,-3.1274557E1,-1.70762E1,-5.696099E0,1.0769602E1,-2.1265717E1,-2.968645E0],"split_indices":[9,3,3,1,1,5,5,0,0,0,0,0,0,0,0],"split_type":[0,0,0,0,0,0,0,0,0,0,0,0,0,0,0],"sum_hessian":[3.9132E4,1.591E4,2.3222E4,1.3708E4,2.202E3,1.9879E4,3.343E3,1.2572E4,1.136E3,6.31E2,1.571E3,3.53E3,1.6349E4,1.171E3,2.172E3],"tree_param":{"num_deleted":"0","num_feature":"11","num_nodes":"15","size_leaf_vector":"1"}},{"base_weights":[1.02312006E-1,3.136395E2,-4.165052E1,1.3599449E2,4.663852E2,2.530463E1,-2.131626E2,3.219711E1,6.7997246E0,3.416762E1,7.7043633E0,-1.2825478E1,3.5395062E0,-1.9869335E1,-6.803163E0],"categories":[],"categories_nodes":[],"categories_segments":[],"categories_sizes":[],"default_left":[0,0,0,0,0,0,0,0,0,0,0,0,0,0,0],"id":41,"left_children":[1,3,5,7,9,11,13,-1,-1,-1,-1,-1,-1,-1,-1],"loss_changes":[5.1153334E8,1.5055907E8,3.9599488E8,2.0106356E7,1.8331667E8,3.179416E8,1.3746477E8,0E0,0E0,0E0,0E0,0E0,0E0,0E0,0E0],"parents":[2147483647,0,0,1,1,2,2,3,3,4,4,5,5,6,6],"right_children":[2,4,6,8,10,12,14,-1,-1,-1,-1,-1,-1,-1,-1],"split_conditions":[2.9375E0,7E0,5E0,-4.125E0,1.85E1,3.5E0,7.5E0,3.219711E1,6.7997246E0,3.416762E1,7.7043633E0,-1.2825478E1,3.5395062E0,-1.9869335E1,-6.803163E0],"split_indices":[0,1,3,0,5,5,5,0,0,0,0,0,0,0,0],"split_type":[0,0,0,0,0,0,0,0,0,0,0,0,0,0,0],"sum_hessian":[3.9073E4,4.591E3,3.4482E4,1.885E3,2.706E3,2.4801E4,9.681E3,7.7E1,1.808E3,1.596E3,1.11E3,3.446E3,2.1355E4,2.855E3,6.826E3],"tree_param":{"num_deleted":"0","num_feature":"11","num_nodes":"15","size_leaf_vector":"1"}},{"base_weights":[-2.0131881E0,1.4649292E2,-1.4446819E2,4.2070004E2,6.2960533E1,-1.8408035E1,-2.5675162E2,3.9926643E1,1.6873425E1,5.639462E0,-1.13358345E1,3.9891338E0,-6.5486603E0,-1.6434038E1,-5.4782915E-1],"categories":[],"categories_nodes":[],"categories_segments":[],"categories_sizes":[],"default_left":[0,0,0,0,0,0,0,0,0,0,0,0,0,0,0],"id":42,"left_children":[1,3,5,7,9,11,13,-1,-1,-1,-1,-1,-1,-1,-1],"loss_changes":[8.290604E8,4.3945507E8,2.83113E8,1.4061587E8,2.1232435E8,1.0417255E8,1.8703123E8,0E0,0E0,0E0,0E0,0E0,0E0,0E0,0E0],"parents":[2147483647,0,0,1,1,2,2,3,3,4,4,5,5,6,6],"right_children":[2,4,6,8,10,12,14,-1,-1,-1,-1,-1,-1,-1,-1],"split_conditions":[-1.8369701E-16,7.225E0,5E0,5.875E-1,6E0,7.518398E-1,1.1E1,3.9926643E1,1.6873425E1,5.639462E0,-1.13358345E1,3.9891338E0,-6.5486603E0,-1.6434038E1,-5.4782915E-1],"split_indices":[7,0,4,0,3,7,4,0,0,0,0,0,0,0,0],"split_type":[0,0,0,0,0,0,0,0,0,0,0,0,0,0,0],"sum_hessian":[3.9187E4,1.9186E4,2.0001E4,4.479E3,1.4707E4,9.423E3,1.0578E4,8.07E2,3.672E3,1.2549E4,2.158E3,5.033E3,4.39E3,8.183E3,2.395E3],"tree_param":{"num_deleted":"0","num_feature":"11","num_nodes":"15","size_leaf_vector":"1"}},{"base_weights":[2.0648869E-2,-2.833777E2,2.9551328E2,-5.0070285E2,-1.9662793E2,1.4805054E2,5.39379E2,-1.9870552E1,-3.782309E1,3.0338976E-1,-1.5425818E1,1.5013892E1,3.3968265E0,2.3931532E1,4.737965E1],"categories":[],"categories_nodes":[],"categories_segments":[],"categories_sizes":[],"default_left":[0,0,0,0,0,0,0,0,0,0,0,0,0,0,0],"id":43,"left_children":[1,3,5,7,9,11,13,-1,-1,-1,-1,-1,-1,-1,-1],"loss_changes":[3.290814E9,3.7807194E8,6.9174016E8,1.5086208E8,3.8223885E8,1.4620414E8,1.7930982E8,0E0,0E0,0E0,0E0,0E0,0E0,0E0,0E0],"parents":[2147483647,0,0,1,1,2,2,3,3,4,4,5,5,6,6],"right_children":[2,4,6,8,10,12,14,-1,-1,-1,-1,-1,-1,-1,-1],"split_conditions":[9.295684E3,7.748239E3,1.053117E4,4.75E0,5.75E0,1.15E1,1.2066037E4,-1.9870552E1,-3.782309E1,3.0338976E-1,-1.5425818E1,1.5013892E1,3.3968265E0,2.3931532E1,4.737965E1],"split_indices":[10,10,10,5,5,5,10,0,0,0,0,0,0,0,0],"split_type":[0,0,0,0,0,0,0,0,0,0,0,0,0,0,0],"sum_hessian":[3.9295E4,2.0058E4,1.9237E4,5.721E3,1.4337E4,1.1989E4,7.248E3,4.077E3,1.644E3,4.523E3,9.814E3,4.133E3,7.856E3,6.311E3,9.37E2],"tree_param":{"num_deleted":"0","num_feature":"11","num_nodes":"15","size_leaf_vector":"1"}},{"base_weights":[-1.9000133E0,-9.4419716E1,1.301176E2,-5.5697884E1,-3.1802225E2,-5.0617493E1,2.0539273E2,-1.2974982E0,-1.8937592E1,-4.264145E0,-1.9059431E1,-9.717291E-2,-1.786454E1,1.5748992E1,1.9301946E-1],"categories":[],"categories_nodes":[],"categories_segments":[],"categories_sizes":[],"default_left":[0,0,0,0,0,0,0,0,0,0,0,0,0,0,0],"id":44,"left_children":[1,3,5,7,9,11,13,-1,-1,-1,-1,-1,-1,-1,-1],"loss_changes":[4.797995E8,1.9995443E8,2.202186E8,1.8919546E8,5.008413E7,7.1051944E7,2.5236806E8,0E0,0E0,0E0,0E0,0E0,0E0,0E0,0E0],"parents":[2147483647,0,0,1,1,2,2,3,3,4,4,5,5,6,6],"right_children":[2,4,6,8,10,12,14,-1,-1,-1,-1,-1,-1,-1,-1],"split_conditions":[5E-1,6E0,7E0,2.2E1,-7.518398E-1,6E0,1.8E1,-1.2974982E0,-1.8937592E1,-4.264145E0,-1.9059431E1,-9.717291E-2,-1.786454E1,1.5748992E1,1.9301946E-1],"split_indices":[9,3,1,1,6,3,1,0,0,0,0,0,0,0,0],"split_type":[0,0,0,0,0,0,0,0,0,0,0,0,0,0,0],"sum_hessian":[3.928E4,2.3095E4,1.6185E4,1.9687E4,3.408E3,4.759E3,1.1426E4,1.8028E4,1.659E3,7.28E2,2.68E3,4.108E3,6.51E2,7.401E3,4.025E3],"tree_param":{"num_deleted":"0","num_feature":"11","num_nodes":"15","size_leaf_vector":"1"}},{"base_weights":[-1.8591945E-1,-1.2558881E2,8.568423E1,2.0807335E1,-1.8515347E2,1.5284525E2,-8.170135E1,-2.608104E0,8.92005E0,-6.416402E0,-1.6209517E1,2.5764465E1,5.6680217E0,-1.2805254E1,3.0944195E-1],"categories":[],"categories_nodes":[],"categories_segments":[],"categories_sizes":[],"default_left":[0,0,0,0,0,0,0,0,0,0,0,0,0,0,0],"id":45,"left_children":[1,3,5,7,9,11,13,-1,-1,-1,-1,-1,-1,-1,-1],"loss_changes":[4.2160307E8,1.3876578E8,2.6126026E8,5.2941572E7,8.932467E7,2.3729014E8,1.0201195E8,0E0,0E0,0E0,0E0,0E0,0E0,0E0,0E0],"parents":[2147483647,0,0,1,1,2,2,3,3,4,4,5,5,6,6],"right_children":[2,4,6,8,10,12,14,-1,-1,-1,-1,-1,-1,-1,-1],"split_conditions":[-1.8369701E-16,5E0,5E0,5.5557024E-1,5E0,7.5E-1,8E0,-2.608104E0,8.92005E0,-6.416402E0,-1.6209517E1,2.5764465E1,5.6680217E0,-1.2805254E1,3.0944195E-1],"split_indices":[9,4,3,6,3,0,1,0,0,0,0,0,0,0,0],"split_type":[0,0,0,0,0,0,0,0,0,0,0,0,0,0,0],"sum_hessian":[3.915E4,1.5912E4,2.3238E4,4.602E3,1.131E4,1.6584E4,6.654E3,3.146E3,1.456E3,8.03E3,3.28E3,1.628E3,1.4956E4,2.229E3,4.425E3],"tree_param":{"num_deleted":"0","num_feature":"11","num_nodes":"15","size_leaf_vector":"1"}},{"base_weights":[-6.3690704E-1,-1.2099184E2,8.22232E1,1.9055649E1,-1.7728615E2,1.2417005E2,-1.6165106E2,-1.0062674E1,2.8553617E0,-6.184315E0,-1.5730845E1,2.3472006E1,4.559591E0,-1.7669872E1,-2.5603156E0],"categories":[],"categories_nodes":[],"categories_segments":[],"categories_sizes":[],"default_left":[0,0,0,0,0,0,0,0,0,0,0,0,0,0,0],"id":46,"left_children":[1,3,5,7,9,11,13,-1,-1,-1,-1,-1,-1,-1,-1],"loss_changes":[3.8959043E8,1.255856E8,2.3670597E8,3.8305544E7,8.359571E7,2.2474749E8,7.19003E7,0E0,0E0,0E0,0E0,0E0,0E0,0E0,0E0],"parents":[2147483647,0,0,1,1,2,2,3,3,4,4,5,5,6,6],"right_children":[2,4,6,8,10,12,14,-1,-1,-1,-1,-1,-1,-1,-1],"split_conditions":[-1.8369701E-16,5E0,6E0,1E0,1.725E1,2.5E-1,8.75E0,-1.0062674E1,2.8553617E0,-6.184315E0,-1.5730845E1,2.3472006E1,4.559591E0,-1.7669872E1,-2.5603156E0],"split_indices":[9,4,3,3,5,0,5,0,0,0,0,0,0,0,0],"split_type":[0,0,0,0,0,0,0,0,0,0,0,0,0,0,0],"sum_hessian":[3.9064E4,1.5928E4,2.3136E4,4.567E3,1.1361E4,1.9741E4,3.395E3,6.72E2,3.895E3,8.173E3,3.188E3,1.72E3,1.8021E4,1.24E3,2.155E3],"tree_param":{"num_deleted":"0","num_feature":"11","num_nodes":"15","size_leaf_vector":"1"}},{"base_weights":[-1.3441236E-1,1.3723166E2,-1.21118996E2,4.5823944E2,8.473271E1,-1.7802557E1,-2.1312704E2,3.1700651E1,1.3574305E1,6.3410664E0,-8.328066E0,3.4497929E0,-6.1887474E0,-1.3574422E1,-6.312862E-1],"categories":[],"categories_nodes":[],"categories_segments":[],"categories_sizes":[],"default_left":[0,0,0,0,0,0,0,0,0,0,0,0,0,0,0],"id":47,"left_children":[1,3,5,7,9,11,13,-1,-1,-1,-1,-1,-1,-1,-1],"loss_changes":[6.555102E8,3.1124486E8,1.9935488E8,8.628525E7,1.6793549E8,9.0887096E7,1.2980179E8,0E0,0E0,0E0,0E0,0E0,0E0,0E0,0E0],"parents":[2147483647,0,0,1,1,2,2,3,3,4,4,5,5,6,6],"right_children":[2,4,6,8,10,12,14,-1,-1,-1,-1,-1,-1,-1,-1],"split_conditions":[-6.5403126E-2,4.75E0,5E0,4E0,6E0,7.518398E-1,1.1E1,3.1700651E1,1.3574305E1,6.3410664E0,-8.328066E0,3.4497929E0,-6.1887474E0,-1.3574422E1,-6.312862E-1],"split_indices":[7,0,4,3,3,7,4,0,0,0,0,0,0,0,0],"split_type":[0,0,0,0,0,0,0,0,0,0,0,0,0,0,0],"sum_hessian":[3.9441E4,1.847E4,2.0971E4,2.595E3,1.5875E4,9.879E3,1.1092E4,1.345E3,1.25E3,1.3598E4,2.277E3,5.431E3,4.448E3,8.591E3,2.501E3],"tree_param":{"num_deleted":"0","num_feature":"11","num_nodes":"15","size_leaf_vector":"1"}},{"base_weights":[-2.736873E-1,-2.0581401E2,3.2069885E2,-3.7524252E2,-9.192883E1,2.3927402E2,6.273466E2,-1.305414E1,-2.7241888E1,2.872121E0,-8.183995E0,1.8461515E1,8.115998E0,2.8342512E1,4.9814934E1],"categories":[],"categories_nodes":[],"categories_segments":[],"categories_sizes":[],"default_left":[0,0,0,0,0,0,0,0,0,0,0,0,0,0,0],"id":48,"left_children":[1,3,5,7,9,11,13,-1,-1,-1,-1,-1,-1,-1,-1],"loss_changes":[2.5924014E9,4.621868E8,3.8287053E8,1.8628442E8,2.0165523E8,1.2117811E8,7.126182E7,0E0,0E0,0E0,0E0,0E0,0E0,0E0,0E0],"parents":[2147483647,0,0,1,1,2,2,3,3,4,4,5,5,6,6],"right_children":[2,4,6,8,10,12,14,-1,-1,-1,-1,-1,-1,-1,-1],"split_conditions":[9.688119E3,8.215707E3,1.128242E4,5E0,6.5E0,1.15E1,1.2396845E4,-1.305414E1,-2.7241888E1,2.872121E0,-8.183995E0,1.8461515E1,8.115998E0,2.8342512E1,4.9814934E1],"split_indices":[10,10,10,1,5,5,10,0,0,0,0,0,0,0,0],"split_type":[0,0,0,0,0,0,0,0,0,0,0,0,0,0,0],"sum_hessian":[3.9293E4,2.3954E4,1.5339E4,9.628E3,1.4326E4,1.2122E4,3.217E3,5.756E3,3.872E3,3.665E3,1.0661E4,4.507E3,7.615E3,2.766E3,4.51E2],"tree_param":{"num_deleted":"0","num_feature":"11","num_nodes":"15","size_leaf_vector":"1"}},{"base_weights":[-4.281252E-1,7.202487E1,-1.8616858E2,1.357411E2,-8.859254E1,-1.15584305E2,-3.033382E2,2.476969E1,4.776754E0,-1.752192E1,-4.6360707E-1,2.4897158E0,-8.388436E0,-1.34138975E1,-2.5317533E1],"categories":[],"categories_nodes":[],"categories_segments":[],"categories_sizes":[],"default_left":[0,0,0,0,0,0,0,0,0,0,0,0,0,0,0],"id":49,"left_children":[1,3,5,7,9,11,13,-1,-1,-1,-1,-1,-1,-1,-1],"loss_changes":[5.285818E8,2.891822E8,9.112051E7,2.9249706E8,1.666945E8,5.9384024E7,2.935264E7,0E0,0E0,0E0,0E0,0E0,0E0,0E0,0E0],"parents":[2147483647,0,0,1,1,2,2,3,3,4,4,5,5,6,6],"right_children":[2,4,6,8,10,12,14,-1,-1,-1,-1,-1,-1,-1,-1],"split_conditions":[6.593458E-1,5E0,1.1025E1,2.9375E0,7.5E0,-3.8268343E-1,2.3E1,2.476969E1,4.776754E0,-1.752192E1,-4.6360707E-1,2.4897158E0,-8.388436E0,-1.34138975E1,-2.5317533E1],"split_indices":[7,3,0,0,5,6,1,0,0,0,0,0,0,0,0],"split_type":[0,0,0,0,0,0,0,0,0,0,0,0,0,0,0],"sum_hessian":[3.9276E4,2.8255E4,1.1021E4,2.023E4,8.025E3,6.879E3,4.142E3,2.033E3,1.8197E4,1.865E3,6.16E3,1.65E3,5.229E3,3.534E3,6.08E2],"tree_param":{"num_deleted":"0","num_feature":"11","num_nodes":"15","size_leaf_vector":"1"}},{"base_weights":[4.0787178E-1,-2.3817125E2,2.4296594E2,-4.5196445E2,-1.7606262E2,1.3379062E2,4.7880536E2,-7.3193306E1,-2.151903E1,1.19867325E-1,-1.4156273E1,1.3654039E1,3.1802716E0,2.1419306E1,4.133073E1],"categories":[],"categories_nodes":[],"categories_segments":[],"categories_sizes":[],"default_left":[0,0,0,0,0,0,0,0,0,0,0,0,0,0,0],"id":50,"left_children":[1,3,5,7,9,11,13,-1,-1,-1,-1,-1,-1,-1,-1],"loss_changes":[2.2812073E9,2.6380211E8,5.032293E8,9.706362E7,3.4063926E8,1.3062077E8,1.0810778E8,0E0,0E0,0E0,0E0,0E0,0E0,0E0,0E0],"parents":[2147483647,0,0,1,1,2,2,3,3,4,4,5,5,6,6],"right_children":[2,4,6,8,10,12,14,-1,-1,-1,-1,-1,-1,-1,-1],"split_conditions":[9.263027E3,7.5738413E3,1.0695155E4,2E0,5.75E0,1.125E1,1.2165586E4,-7.3193306E1,-2.151903E1,1.19867325E-1,-1.4156273E1,1.3654039E1,3.1802716E0,2.1419306E1,4.133073E1],"split_indices":[10,10,10,4,5,5,10,0,0,0,0,0,0,0,0],"split_type":[0,0,0,0,0,0,0,0,0,0,0,0,0,0,0],"sum_hessian":[3.9418E4,1.9872E4,1.9546E4,4.472E3,1.54E4,1.3362E4,6.184E3,9.2E1,4.38E3,5.206E3,1.0194E4,4.476E3,8.886E3,5.403E3,7.81E2],"tree_param":{"num_deleted":"0","num_feature":"11","num_nodes":"15","size_leaf_vector":"1"}},{"base_weights":[6.73034E-1,2.1489851E1,-3.1126575E2,-1.2908342E2,6.655897E1,-5.354682E2,-2.635272E2,-3.9179337E0,-1.3401912E1,-3.2437139E0,6.135926E0,-2.2353209E1,-3.5307236E1,-1.866304E1,-9.186718E0],"categories":[],"categories_nodes":[],"categories_segments":[],"categories_sizes":[],"default_left":[0,0,0,0,0,0,0,0,0,0,0,0,0,0,0],"id":51,"left_children":[1,3,5,7,9,11,13,-1,-1,-1,-1,-1,-1,-1,-1],"loss_changes":[2.5482746E8,2.496595E8,2.6135008E7,5.9714576E7,2.0900011E8,6.17236E6,1.7670992E7,0E0,0E0,0E0,0E0,0E0,0E0,0E0,0E0],"parents":[2147483647,0,0,1,1,2,2,3,3,4,4,5,5,6,6],"right_children":[2,4,6,8,10,12,14,-1,-1,-1,-1,-1,-1,-1,-1],"split_conditions":[2.25E1,-5E-1,-5E-1,7E0,6.75E0,1E1,-1.8369701E-16,-3.9179337E0,-1.3401912E1,-3.2437139E0,6.135926E0,-2.2353209E1,-3.5307236E1,-1.866304E1,-9.186718E0],"split_indices":[5,9,8,4,5,4,9,0,0,0,0,0,0,0,0],"split_type":[0,0,0,0,0,0,0,0,0,0,0,0,0,0,0],"sum_hessian":[3.9241E4,3.6787E4,2.454E3,8.474E3,2.8313E4,4.29E2,2.025E3,6.209E3,2.265E3,8.476E3,1.9837E4,2.85E2,1.44E2,8.51E2,1.174E3],"tree_param":{"num_deleted":"0","num_feature":"11","num_nodes":"15","size_leaf_vector":"1"}},{"base_weights":[-5.1325494E-1,1.100066E2,-9.7589264E1,3.910428E2,6.683676E1,-1.35622425E1,-1.7215889E2,3.5541233E1,1.5551E1,5.028962E0,-6.6313148E0,2.327211E0,-5.7075276E0,-1.1054833E1,-2.9132447E-1],"categories":[],"categories_nodes":[],"categories_segments":[],"categories_sizes":[],"default_left":[0,0,0,0,0,0,0,0,0,0,0,0,0,0,0],"id":52,"left_children":[1,3,5,7,9,11,13,-1,-1,-1,-1,-1,-1,-1,-1],"loss_changes":[4.2080598E8,2.224922E8,1.3083512E8,6.226931E7,1.0702632E8,5.9371052E7,9.005088E7,0E0,0E0,0E0,0E0,0E0,0E0,0E0,0E0],"parents":[2147483647,0,0,1,1,2,2,3,3,4,4,5,5,6,6],"right_children":[2,4,6,8,10,12,14,-1,-1,-1,-1,-1,-1,-1,-1],"split_conditions":[-6.5403126E-2,4.45E0,5E0,-4.5000002E-1,6E0,8.314696E-1,1.1E1,3.5541233E1,1.5551E1,5.028962E0,-6.6313148E0,2.327211E0,-5.7075276E0,-1.1054833E1,-2.9132447E-1],"split_indices":[7,0,4,0,3,7,4,0,0,0,0,0,0,0,0],"split_type":[0,0,0,0,0,0,0,0,0,0,0,0,0,0,0],"sum_hessian":[3.922E4,1.834E4,2.088E4,2.441E3,1.5899E4,9.818E3,1.1062E4,4.87E2,1.954E3,1.3599E4,2.3E3,6.146E3,3.672E3,8.547E3,2.515E3],"tree_param":{"num_deleted":"0","num_feature":"11","num_nodes":"15","size_leaf_vector":"1"}},{"base_weights":[1.4211774E-1,1.9480795E1,-2.8912152E2,-1.4123543E2,5.6893654E1,-5.0006445E2,-2.422298E2,-1.669501E1,-5.4512773E0,1.2989848E1,9.2549753E-1,-2.0407759E1,-3.361402E1,-7.454534E0,-1.6802767E1],"categories":[],"categories_nodes":[],"categories_segments":[],"categories_sizes":[],"default_left":[0,0,0,0,0,0,0,0,0,0,0,0,0,0,0],"id":53,"left_children":[1,3,5,7,9,11,13,-1,-1,-1,-1,-1,-1,-1,-1],"loss_changes":[2.198657E8,2.2152755E8,2.4241568E7,4.313672E7,2.3274498E8,6.800824E6,1.7576104E7,0E0,0E0,0E0,0E0,0E0,0E0,0E0,0E0],"parents":[2147483647,0,0,1,1,2,2,3,3,4,4,5,5,6,6],"right_children":[2,4,6,8,10,12,14,-1,-1,-1,-1,-1,-1,-1,-1],"split_conditions":[2.25E1,4.25E0,-5E-1,1E0,4.55E0,1E1,2.325E1,-1.669501E1,-5.4512773E0,1.2989848E1,9.2549753E-1,-2.0407759E1,-3.361402E1,-7.454534E0,-1.6802767E1],"split_indices":[5,5,8,3,0,4,5,0,0,0,0,0,0,0,0],"split_type":[0,0,0,0,0,0,0,0,0,0,0,0,0,0,0],"sum_hessian":[3.9302E4,3.684E4,2.462E3,6.956E3,2.9884E4,4.46E2,2.016E3,9.95E2,5.961E3,4.753E3,2.5131E4,2.93E2,1.53E2,1.013E3,1.003E3],"tree_param":{"num_deleted":"0","num_feature":"11","num_nodes":"15","size_leaf_vector":"1"}},{"base_weights":[-1.5574414E0,2.8261854E1,-1.8204323E2,2.4529506E2,-4.6546572E-1,4.3819305E1,-2.4587386E2,1.8228798E1,6.249019E0,1.0192488E0,-1.3874484E1,6.881971E0,-5.01414E0,-9.828428E0,-2.1848013E1],"categories":[],"categories_nodes":[],"categories_segments":[],"categories_sizes":[],"default_left":[0,0,0,0,0,0,0,0,0,0,0,0,0,0,0],"id":54,"left_children":[1,3,5,7,9,11,13,-1,-1,-1,-1,-1,-1,-1,-1],"loss_changes":[2.1191442E8,2.1068589E8,8.050056E7,5.664187E7,1.7238115E8,1.6656522E7,4.092621E7,0E0,0E0,0E0,0E0,0E0,0E0,0E0,0E0],"parents":[2147483647,0,0,1,1,2,2,3,3,4,4,5,5,6,6],"right_children":[2,4,6,8,10,12,14,-1,-1,-1,-1,-1,-1,-1,-1],"split_conditions":[6E0,2.9375E0,-7.518398E-1,2E0,2.225E1,1.875E1,8.9687276E-1,1.8228798E1,6.249019E0,1.0192488E0,-1.3874484E1,6.881971E0,-5.01414E0,-9.828428E0,-2.1848013E1],"split_indices":[3,0,6,4,5,5,6,0,0,0,0,0,0,0,0],"split_type":[0,0,0,0,0,0,0,0,0,0,0,0,0,0,0],"sum_hessian":[3.9373E4,3.3791E4,5.582E3,3.949E3,2.9842E4,1.23E3,4.352E3,1.982E3,1.967E3,2.7754E4,2.088E3,7.45E2,4.85E2,3.461E3,8.91E2],"tree_param":{"num_deleted":"0","num_feature":"11","num_nodes":"15","size_leaf_vector":"1"}},{"base_weights":[-5.998155E-2,-1.6250958E2,2.9098883E2,-2.6675473E2,-2.0374725E1,2.1786397E2,5.340431E2,-7.9338784E0,-1.8900911E1,3.2119813E0,-4.546045E0,1.7141548E1,7.8959503E0,2.46435E1,4.5591656E1],"categories":[],"categories_nodes":[],"categories_segments":[],"categories_sizes":[],"default_left":[0,0,0,0,0,0,0,0,0,0,0,0,0,0,0],"id":55,"left_children":[1,3,5,7,9,11,13,-1,-1,-1,-1,-1,-1,-1,-1],"loss_changes":[1.8597416E9,3.7403174E8,2.503095E8,1.750606E8,9.093322E7,8.109744E7,5.0228224E7,0E0,0E0,0E0,0E0,0E0,0E0,0E0,0E0],"parents":[2147483647,0,0,1,1,2,2,3,3,4,4,5,5,6,6],"right_children":[2,4,6,8,10,12,14,-1,-1,-1,-1,-1,-1,-1,-1],"split_conditions":[9.805548E3,8.701617E3,1.128242E4,5.25E0,1.125E1,1.075E1,1.2556237E4,-7.9338784E0,-1.8900911E1,3.2119813E0,-4.546045E0,1.7141548E1,7.8959503E0,2.46435E1,4.5591656E1],"split_indices":[10,10,10,5,5,5,10,0,0,0,0,0,0,0,0],"split_type":[0,0,0,0,0,0,0,0,0,0,0,0,0,0,0],"sum_hessian":[3.9332E4,2.5243E4,1.4089E4,1.4562E4,1.0681E4,1.0832E4,3.257E3,7.388E3,7.174E3,3.728E3,6.953E3,3.51E3,7.322E3,2.939E3,3.18E2],"tree_param":{"num_deleted":"0","num_feature":"11","num_nodes":"15","size_leaf_vector":"1"}},{"base_weights":[6.9094366E-1,2.8589596E1,-1.6800664E2,3.333986E2,1.050102E1,5.3679295E1,-2.2941441E2,8.59749E0,2.1609798E1,1.4280409E0,-1.3102527E1,9.486369E0,-1.7954798E0,-9.085673E0,-1.9506031E1],"categories":[],"categories_nodes":[],"categories_segments":[],"categories_sizes":[],"default_left":[0,0,0,0,0,0,0,0,0,0,0,0,0,0,0],"id":56,"left_children":[1,3,5,7,9,11,13,-1,-1,-1,-1,-1,-1,-1,-1],"loss_changes":[1.8426645E8,1.852301E8,7.564747E7,4.173805E7,1.5611586E8,1.4706021E7,3.3283184E7,0E0,0E0,0E0,0E0,0E0,0E0,0E0,0E0],"parents":[2147483647,0,0,1,1,2,2,3,3,4,4,5,5,6,6],"right_children":[2,4,6,8,10,12,14,-1,-1,-1,-1,-1,-1,-1,-1],"split_conditions":[6E0,4.5E-1,-7.518398E-1,5E0,2.25E1,1.02E1,8.660254E-1,8.59749E0,2.1609798E1,1.4280409E0,-1.3102527E1,9.486369E0,-1.7954798E0,-9.085673E0,-1.9506031E1],"split_indices":[3,0,6,1,5,0,6,0,0,0,0,0,0,0,0],"split_type":[0,0,0,0,0,0,0,0,0,0,0,0,0,0,0],"sum_hessian":[3.915E4,3.3595E4,5.555E3,1.881E3,3.1714E4,1.205E3,4.35E3,5.41E2,1.34E3,2.9744E4,1.97E3,4.78E2,7.27E2,3.356E3,9.94E2],"tree_param":{"num_deleted":"0","num_feature":"11","num_nodes":"15","size_leaf_vector":"1"}},{"base_weights":[6.507428E-1,9.965047E1,-7.9427826E1,2.7394034E2,4.824978E1,-5.2950573E0,-1.454229E2,3.1950058E1,1.1412818E1,7.9872184E0,-1.9697571E0,7.217857E-1,-1.2122987E1,-9.401959E0,-8.0429584E-2],"categories":[],"categories_nodes":[],"categories_segments":[],"categories_sizes":[],"default_left":[0,0,0,0,0,0,0,0,0,0,0,0,0,0,0],"id":57,"left_children":[1,3,5,7,9,11,13,-1,-1,-1,-1,-1,-1,-1,-1],"loss_changes":[3.111565E8,1.5721952E8,1.0615446E8,6.651389E7,1.3246485E8,4.78274E7,7.035248E7,0E0,0E0,0E0,0E0,0E0,0E0,0E0,0E0],"parents":[2147483647,0,0,1,1,2,2,3,3,4,4,5,5,6,6],"right_children":[2,4,6,8,10,12,14,-1,-1,-1,-1,-1,-1,-1,-1],"split_conditions":[-1.3052619E-1,7.225E0,5E0,-4.5000002E-1,1.175E1,2.3E1,1.1E1,3.1950058E1,1.1412818E1,7.9872184E0,-1.9697571E0,7.217857E-1,-1.2122987E1,-9.401959E0,-8.0429584E-2],"split_indices":[7,0,4,0,5,1,4,0,0,0,0,0,0,0,0],"split_type":[0,0,0,0,0,0,0,0,0,0,0,0,0,0,0],"sum_hessian":[3.9247E4,1.755E4,2.1697E4,3.996E3,1.3554E4,1.0219E4,1.1478E4,4.43E2,3.553E3,5.965E3,7.589E3,9.435E3,7.84E2,8.854E3,2.624E3],"tree_param":{"num_deleted":"0","num_feature":"11","num_nodes":"15","size_leaf_vector":"1"}},{"base_weights":[-1.4255515E0,8.9742004E1,-8.153702E1,1.6952592E2,-1.0362785E1,-1.2794687E1,-1.4250877E2,2.4464516E1,7.1945925E0,3.9790788E0,-6.134662E0,2.8264627E-1,-1.1609673E1,-9.146387E0,-5.741775E-2],"categories":[],"categories_nodes":[],"categories_segments":[],"categories_sizes":[],"default_left":[0,0,0,0,0,0,0,0,0,0,0,0,0,0,0],"id":58,"left_children":[1,3,5,7,9,11,13,-1,-1,-1,-1,-1,-1,-1,-1],"loss_changes":[2.875049E8,1.4705386E8,8.781938E7,8.391466E7,1.25405416E8,3.9868044E7,6.3444064E7,0E0,0E0,0E0,0E0,0E0,0E0,0E0,0E0],"parents":[2147483647,0,0,1,1,2,2,3,3,4,4,5,5,6,6],"right_children":[2,4,6,8,10,12,14,-1,-1,-1,-1,-1,-1,-1,-1],"split_conditions":[-6.5403126E-2,1.365E1,5E0,5.875E-1,1.2E1,2.3E1,1.1E1,2.4464516E1,7.1945925E0,3.9790788E0,-6.134662E0,2.8264627E-1,-1.1609673E1,-9.146387E0,-5.741775E-2],"split_indices":[7,0,4,0,1,1,4,0,0,0,0,0,0,0,0],"split_type":[0,0,0,0,0,0,0,0,0,0,0,0,0,0,0],"sum_hessian":[3.9363E4,1.8411E4,2.0952E4,1.0245E4,8.166E3,9.849E3,1.1103E4,7.59E2,9.486E3,3.487E3,4.679E3,9.086E3,7.63E2,8.634E3,2.469E3],"tree_param":{"num_deleted":"0","num_feature":"11","num_nodes":"15","size_leaf_vector":"1"}},{"base_weights":[9.61101E-1,-1.1523687E2,3.5666454E1,2.0564054E1,-1.613275E2,6.2581E1,-1.2554859E2,5.461887E0,-4.0380473E0,-1.0663776E1,-4.294083E0,4.006073E0,-9.95482E0,5.9123244E0,-9.231884E0],"categories":[],"categories_nodes":[],"categories_segments":[],"categories_sizes":[],"default_left":[0,0,0,0,0,0,0,0,0,0,0,0,0,0,0],"id":59,"left_children":[1,3,5,7,9,11,13,-1,-1,-1,-1,-1,-1,-1,-1],"loss_changes":[1.5805739E8,5.642327E7,1.3095976E8,2.0539228E7,2.635832E7,1.18725624E8,6.222533E7,0E0,0E0,0E0,0E0,0E0,0E0,0E0,0E0],"parents":[2147483647,0,0,1,1,2,2,3,3,4,4,5,5,6,6],"right_children":[2,4,6,8,10,12,14,-1,-1,-1,-1,-1,-1,-1,-1],"split_conditions":[-5E-1,-8.660254E-1,6E0,4E0,3.2143947E-1,2.25E1,-7.933533E-1,5.461887E0,-4.0380473E0,-1.0663776E1,-4.294083E0,4.006073E0,-9.95482E0,5.9123244E0,-9.231884E0],"split_indices":[9,9,3,3,6,5,6,0,0,0,0,0,0,0,0],"split_type":[0,0,0,0,0,0,0,0,0,0,0,0,0,0,0],"sum_hessian":[3.9192E4,9.013E3,3.0179E4,2.284E3,6.729E3,2.5862E4,4.317E3,1.218E3,1.066E3,3.984E3,2.745E3,2.4238E4,1.624E3,8.42E2,3.475E3],"tree_param":{"num_deleted":"0","num_feature":"11","num_nodes":"15","size_leaf_vector":"1"}},{"base_weights":[1.340984E0,-2.024198E2,1.8984108E2,-4.6367737E2,-1.661817E2,8.489339E1,3.5713397E2,-7.6055916E1,-2.209649E1,-4.8541856E-1,-1.3263743E1,1.1050684E1,1.9176365E0,1.4203445E1,2.5164751E1],"categories":[],"categories_nodes":[],"categories_segments":[],"categories_sizes":[],"default_left":[0,0,0,0,0,0,0,0,0,0,0,0,0,0,0],"id":60,"left_children":[1,3,5,7,9,11,13,-1,-1,-1,-1,-1,-1,-1,-1],"loss_changes":[1.5115066E9,1.7896243E8,3.5886982E8,5.2289216E7,2.5752733E8,8.1506536E7,8.40096E7,0E0,0E0,0E0,0E0,0E0,0E0,0E0,0E0],"parents":[2147483647,0,0,1,1,2,2,3,3,4,4,5,5,6,6],"right_children":[2,4,6,8,10,12,14,-1,-1,-1,-1,-1,-1,-1,-1],"split_conditions":[9.166336E3,7.2499375E3,1.0445909E4,2E0,5.5E0,9.75E0,1.1430418E4,-7.6055916E1,-2.209649E1,-4.8541856E-1,-1.3263743E1,1.1050684E1,1.9176365E0,1.4203445E1,2.5164751E1],"split_indices":[10,10,10,4,5,5,10,0,0,0,0,0,0,0,0],"split_type":[0,0,0,0,0,0,0,0,0,0,0,0,0,0,0],"sum_hessian":[3.9351E4,1.891E4,2.0441E4,2.302E3,1.6608E4,1.2562E4,7.879E3,4.5E1,2.257E3,6.44E3,1.0168E4,3.142E3,9.42E3,5.255E3,2.624E3],"tree_param":{"num_deleted":"0","num_feature":"11","num_nodes":"15","size_leaf_vector":"1"}},{"base_weights":[8.866662E-1,-1.3323682E2,2.5704266E2,-2.2903423E2,-8.110336E0,1.9242584E2,4.3900876E2,-6.7455034E0,-1.6276533E1,3.0951462E0,-2.904669E0,1.4855002E1,6.833816E0,1.993565E1,3.5540756E1],"categories":[],"categories_nodes":[],"categories_segments":[],"categories_sizes":[],"default_left":[0,0,0,0,0,0,0,0,0,0,0,0,0,0,0],"id":61,"left_children":[1,3,5,7,9,11,13,-1,-1,-1,-1,-1,-1,-1,-1],"loss_changes":[1.3485284E9,3.0880182E8,1.5852013E8,1.324809E8,7.299595E7,5.8057984E7,3.8423104E7,0E0,0E0,0E0,0E0,0E0,0E0,0E0,0E0],"parents":[2147483647,0,0,1,1,2,2,3,3,4,4,5,5,6,6],"right_children":[2,4,6,8,10,12,14,-1,-1,-1,-1,-1,-1,-1,-1],"split_conditions":[9.863745E3,8.701617E3,1.1202746E4,5.25E0,7E0,1.1E1,1.2396845E4,-6.7455034E0,-1.6276533E1,3.0951462E0,-2.904669E0,1.4855002E1,6.833816E0,1.993565E1,3.5540756E1],"split_indices":[10,10,10,5,1,1,10,0,0,0,0,0,0,0,0],"split_type":[0,0,0,0,0,0,0,0,0,0,0,0,0,0,0],"sum_hessian":[3.9249E4,2.5761E4,1.3488E4,1.459E4,1.1171E4,9.955E3,3.533E3,7.387E3,7.203E3,2.299E3,8.872E3,3.458E3,6.497E3,3.079E3,4.54E2],"tree_param":{"num_deleted":"0","num_feature":"11","num_nodes":"15","size_leaf_vector":"1"}},{"base_weights":[-1.1056709E0,-1.8192E2,1.7274455E2,-3.640777E2,-1.3140884E2,7.924357E1,3.242254E2,-7.4965866E1,-1.7074469E1,-2.2938614E-1,-1.1186814E1,1.0086724E1,1.9123722E0,1.3231318E1,2.3264029E1],"categories":[],"categories_nodes":[],"categories_segments":[],"categories_sizes":[],"default_left":[0,0,0,0,0,0,0,0,0,0,0,0,0,0,0],"id":62,"left_children":[1,3,5,7,9,11,13,-1,-1,-1,-1,-1,-1,-1,-1],"loss_changes":[1.2310735E9,1.7658374E8,2.8276493E8,1.0634304E8,2.2755845E8,6.2794E7,6.393632E7,0E0,0E0,0E0,0E0,0E0,0E0,0E0,0E0],"parents":[2147483647,0,0,1,1,2,2,3,3,4,4,5,5,6,6],"right_children":[2,4,6,8,10,12,14,-1,-1,-1,-1,-1,-1,-1,-1],"split_conditions":[9.199367E3,7.5318496E3,1.0465942E4,2E0,5.75E0,9.75E0,1.1510567E4,-7.4965866E1,-1.7074469E1,-2.2938614E-1,-1.1186814E1,1.0086724E1,1.9123722E0,1.3231318E1,2.3264029E1],"split_indices":[10,10,10,4,5,5,10,0,0,0,0,0,0,0,0],"split_type":[0,0,0,0,0,0,0,0,0,0,0,0,0,0,0],"sum_hessian":[3.9161E4,1.9196E4,1.9965E4,4.166E3,1.503E4,1.2346E4,7.619E3,8E1,4.086E3,5.259E3,9.771E3,3.065E3,9.281E3,5.358E3,2.261E3],"tree_param":{"num_deleted":"0","num_feature":"11","num_nodes":"15","size_leaf_vector":"1"}},{"base_weights":[3.2738304E-1,-1.8316647E2,1.5377605E2,-4.6241055E2,-1.542107E2,5.7168972E1,2.895485E2,-4.8560814E1,-2.1510832E1,-1.3400447E0,-1.2281322E1,8.667937E0,7.741576E-1,1.1604013E1,2.135269E1],"categories":[],"categories_nodes":[],"categories_segments":[],"categories_sizes":[],"default_left":[0,0,0,0,0,0,0,0,0,0,0,0,0,0,0],"id":63,"left_children":[1,3,5,7,9,11,13,-1,-1,-1,-1,-1,-1,-1,-1],"loss_changes":[1.1039188E9,1.4429946E8,2.8003552E8,2.705216E7,1.8843446E8,6.797889E7,7.00407E7,0E0,0E0,0E0,0E0,0E0,0E0,0E0,0E0],"parents":[2147483647,0,0,1,1,2,2,3,3,4,4,5,5,6,6],"right_children":[2,4,6,8,10,12,14,-1,-1,-1,-1,-1,-1,-1,-1],"split_conditions":[9.068809E3,7.1322173E3,1.031649E4,4E0,5.5E0,9.5E0,1.1430418E4,-4.8560814E1,-2.1510832E1,-1.3400447E0,-1.2281322E1,8.667937E0,7.741576E-1,1.1604013E1,2.135269E1],"split_indices":[10,10,10,4,5,5,10,0,0,0,0,0,0,0,0],"split_type":[0,0,0,0,0,0,0,0,0,0,0,0,0,0,0],"sum_hessian":[3.9204E4,1.7854E4,2.135E4,1.676E3,1.6178E4,1.2475E4,8.875E3,9.8E1,1.578E3,6.759E3,9.419E3,2.99E3,9.485E3,6.261E3,2.614E3],"tree_param":{"num_deleted":"0","num_feature":"11","num_nodes":"15","size_leaf_vector":"1"}},{"base_weights":[8.419317E-1,1.2489694E1,-2.0801665E2,-1.03347565E2,3.7061512E1,-2.4233432E2,-9.92254E1,-1.4466654E1,-3.6179607E0,1.461637E1,1.1918782E0,-1.0789972E1,-2.746308E1,2.5066805E-1,-8.350718E0],"categories":[],"categories_nodes":[],"categories_segments":[],"categories_sizes":[],"default_left":[0,0,0,0,0,0,0,0,0,0,0,0,0,0,0],"id":64,"left_children":[1,3,5,7,9,11,13,-1,-1,-1,-1,-1,-1,-1,-1],"loss_changes":[9.570153E7,1.0606101E8,7.734072E6,3.756209E7,1.0376307E8,1.2741296E7,3.5339545E6,0E0,0E0,0E0,0E0,0E0,0E0,0E0,0E0],"parents":[2147483647,0,0,1,1,2,2,3,3,4,4,5,5,6,6],"right_children":[2,4,6,8,10,12,14,-1,-1,-1,-1,-1,-1,-1,-1],"split_conditions":[2.275E1,4E0,8.660254E-1,1E0,4.5E-1,1E1,2.325E1,-1.4466654E1,-3.6179607E0,1.461637E1,1.1918782E0,-1.0789972E1,-2.746308E1,2.5066805E-1,-8.350718E0],"split_indices":[5,1,9,3,0,4,5,0,0,0,0,0,0,0,0],"split_type":[0,0,0,0,0,0,0,0,0,0,0,0,0,0,0],"sum_hessian":[3.9337E4,3.726E4,2.077E3,6.52E3,3.074E4,1.578E3,4.99E2,9.3E2,5.59E3,1.513E3,2.9227E4,1.454E3,1.24E2,1.97E2,3.02E2],"tree_param":{"num_deleted":"0","num_feature":"11","num_nodes":"15","size_leaf_vector":"1"}},{"base_weights":[6.6668093E-1,2.0266983E1,-1.1748253E2,2.6702374E2,8.996508E0,-2.4736475E2,-5.0483994E1,1.747544E1,6.9005065E0,1.0405039E0,-1.0014471E1,-5.6010723E0,-1.5342572E1,-4.624235E0,4.353118E0],"categories":[],"categories_nodes":[],"categories_segments":[],"categories_sizes":[],"default_left":[0,0,0,0,0,0,0,0,0,0,0,0,0,0,0],"id":65,"left_children":[1,3,5,7,9,11,13,-1,-1,-1,-1,-1,-1,-1,-1],"loss_changes":[9.092839E7,9.365834E7,4.860511E7,2.210728E7,7.963566E7,1.5270816E7,2.1308018E7,0E0,0E0,0E0,0E0,0E0,0E0,0E0,0E0],"parents":[2147483647,0,0,1,1,2,2,3,3,4,4,5,5,6,6],"right_children":[2,4,6,8,10,12,14,-1,-1,-1,-1,-1,-1,-1,-1],"split_conditions":[6E0,-2.375E-1,8.25E0,2E0,2.275E1,2.5E0,8.660254E-1,1.747544E1,6.9005065E0,1.0405039E0,-1.0014471E1,-5.6010723E0,-1.5342572E1,-4.624235E0,4.353118E0],"split_indices":[3,0,5,4,5,5,9,0,0,0,0,0,0,0,0],"split_type":[0,0,0,0,0,0,0,0,0,0,0,0,0,0,0],"sum_hessian":[3.9263E4,3.3677E4,5.586E3,1.47E3,3.2207E4,1.9E3,3.686E3,1.041E3,4.29E2,3.0487E4,1.72E3,5.81E2,1.319E3,2.824E3,8.62E2],"tree_param":{"num_deleted":"0","num_feature":"11","num_nodes":"15","size_leaf_vector":"1"}},{"base_weights":[6.960945E-1,2.2818095E2,-8.679656E0,1.0975065E2,3.083294E2,1.9949101E0,-2.024235E2,9.584004E0,5.4875326E0,1.8415537E1,5.4875326E0,-5.1260524E0,1.2021968E0,-7.8032565E0,-1.3548877E1],"categories":[],"categories_nodes":[],"categories_segments":[],"categories_sizes":[],"default_left":[0,0,0,0,0,0,0,0,0,0,0,0,0,0,0],"id":66,"left_children":[1,3,5,7,9,11,13,-1,-1,-1,-1,-1,-1,-1,-1],"loss_changes":[8.394847E7,2.257744E7,7.81799E7,1.3438675E6,1.3909336E7,8.256949E7,6.231184E6,0E0,0E0,0E0,0E0,0E0,0E0,0E0,0E0],"parents":[2147483647,0,0,1,1,2,2,3,3,4,4,5,5,6,6],"right_children":[2,4,6,8,10,12,14,-1,-1,-1,-1,-1,-1,-1,-1],"split_conditions":[-4.5000002E-1,8.660254E-1,2.275E1,3E0,5E0,4E0,2.35E1,9.584004E0,5.4875326E0,1.8415537E1,5.4875326E0,-5.1260524E0,1.2021968E0,-7.8032565E0,-1.3548877E1],"split_indices":[0,9,5,3,3,1,5,0,0,0,0,0,0,0,0],"split_type":[0,0,0,0,0,0,0,0,0,0,0,0,0,0,0],"sum_hessian":[3.9358E4,1.557E3,3.7801E4,4.31E2,1.126E3,3.5828E4,1.973E3,2.01E2,2.3E2,8.72E2,2.54E2,6.241E3,2.9587E4,1.179E3,7.94E2],"tree_param":{"num_deleted":"0","num_feature":"11","num_nodes":"15","size_leaf_vector":"1"}},{"base_weights":[8.8139045E-1,6.902147E1,-5.441404E1,1.4499504E2,-3.3150718E0,-2.4085804E1,-1.3015483E2,8.800361E0,-2.1840866E0,-3.8797672E0,6.367957E0,-3.3167999E0,4.6988044E0,-3.982945E0,-1.2297883E1],"categories":[],"categories_nodes":[],"categories_segments":[],"categories_sizes":[],"default_left":[0,0,0,0,0,0,0,0,0,0,0,0,0,0,0],"id":67,"left_children":[1,3,5,7,9,11,13,-1,-1,-1,-1,-1,-1,-1,-1],"loss_changes":[1.4783851E8,9.659777E7,4.9751708E7,5.017072E7,8.741706E7,7.7162744E7,3.6194416E7,0E0,0E0,0E0,0E0,0E0,0E0,0E0,0E0],"parents":[2147483647,0,0,1,1,2,2,3,3,4,4,5,5,6,6],"right_children":[2,4,6,8,10,12,14,-1,-1,-1,-1,-1,-1,-1,-1],"split_conditions":[-1.3052619E-1,1.2E1,5E0,6E0,1.55E1,7.518398E-1,6.593458E-1,8.800361E0,-2.1840866E0,-3.8797672E0,6.367957E0,-3.3167999E0,4.6988044E0,-3.982945E0,-1.2297883E1],"split_indices":[7,1,3,3,5,6,6,0,0,0,0,0,0,0,0],"split_type":[0,0,0,0,0,0,0,0,0,0,0,0,0,0,0],"sum_hessian":[3.9235E4,1.7576E4,2.1659E4,8.572E3,9.004E3,1.5467E4,6.192E3,7.362E3,1.21E3,5.741E3,3.263E3,1.1391E4,4.076E3,4.313E3,1.879E3],"tree_param":{"num_deleted":"0","num_feature":"11","num_nodes":"15","size_leaf_vector":"1"}},{"base_weights":[1.3692527E0,-8.3127945E1,2.63696E1,-3.7730064E1,-2.0785645E2,4.4616623E1,-8.370002E1,-4.056453E0,2.2579277E0,-9.024733E0,-1.9563911E1,-4.0417495E0,3.2273045E0,-9.983568E0,-9.622943E-1],"categories":[],"categories_nodes":[],"categories_segments":[],"categories_sizes":[],"default_left":[0,0,0,0,0,0,0,0,0,0,0,0,0,0,0],"id":68,"left_children":[1,3,5,7,9,11,13,-1,-1,-1,-1,-1,-1,-1,-1],"loss_changes":[8.2770456E7,5.064808E7,6.073101E7,2.360184E7,1.1909128E7,6.4852468E7,3.213793E7,0E0,0E0,0E0,0E0,0E0,0E0,0E0,0E0],"parents":[2147483647,0,0,1,1,2,2,3,3,4,4,5,5,6,6],"right_children":[2,4,6,8,10,12,14,-1,-1,-1,-1,-1,-1,-1,-1],"split_conditions":[-5E-1,7E0,6E0,6E0,6E0,3.25E0,8.5E0,-4.056453E0,2.2579277E0,-9.024733E0,-1.9563911E1,-4.0417495E0,3.2273045E0,-9.983568E0,-9.622943E-1],"split_indices":[9,4,3,4,3,5,5,0,0,0,0,0,0,0,0],"split_type":[0,0,0,0,0,0,0,0,0,0,0,0,0,0,0],"sum_hessian":[3.918E4,8.945E3,3.0235E4,6.559E3,2.386E3,2.5936E4,4.299E3,4.305E3,2.254E3,2.078E3,3.08E2,3.555E3,2.2381E4,1.535E3,2.764E3],"tree_param":{"num_deleted":"0","num_feature":"11","num_nodes":"15","size_leaf_vector":"1"}},{"base_weights":[5.289913E-1,-1.067133E2,2.1626198E2,-2.761279E2,-5.3187172E1,1.6816502E2,3.7313846E2,-9.83936E0,-2.2449688E1,2.7387168E0,-5.3578315E0,1.2740305E1,5.8468447E0,1.704608E1,3.332743E1],"categories":[],"categories_nodes":[],"categories_segments":[],"categories_sizes":[],"default_left":[0,0,0,0,0,0,0,0,0,0,0,0,0,0,0],"id":69,"left_children":[1,3,5,7,9,11,13,-1,-1,-1,-1,-1,-1,-1,-1],"loss_changes":[9.0976506E8,2.3816826E8,9.8456E7,8.640022E7,1.5615224E8,4.433261E7,2.872656E7,0E0,0E0,0E0,0E0,0E0,0E0,0E0,0E0],"parents":[2147483647,0,0,1,1,2,2,3,3,4,4,5,5,6,6],"right_children":[2,4,6,8,10,12,14,-1,-1,-1,-1,-1,-1,-1,-1],"split_conditions":[9.906922E3,7.830435E3,1.1324671E4,4.75E0,6.25E0,1.125E1,1.2556237E4,-9.83936E0,-2.2449688E1,2.7387168E0,-5.3578315E0,1.2740305E1,5.8468447E0,1.704608E1,3.332743E1],"split_indices":[10,10,10,5,5,5,10,0,0,0,0,0,0,0,0],"split_type":[0,0,0,0,0,0,0,0,0,0,0,0,0,0,0],"sum_hessian":[3.9321E4,2.6265E4,1.3056E4,6.305E3,1.996E4,9.994E3,3.062E3,4.323E3,1.982E3,5.133E3,1.4827E4,3.712E3,6.282E3,2.761E3,3.01E2],"tree_param":{"num_deleted":"0","num_feature":"11","num_nodes":"15","size_leaf_vector":"1"}},{"base_weights":[-1.0176152E0,1.6169969E2,-1.1261953E1,2.705685E2,7.521887E1,-2.9097772E0,-2.062248E2,3.7609437E0,1.7362732E1,3.7609437E0,6.627691E0,-5.1763835E0,6.5716255E-1,-7.7645593E0,-1.2884775E1],"categories":[],"categories_nodes":[],"categories_segments":[],"categories_sizes":[],"default_left":[0,0,0,0,0,0,0,0,0,0,0,0,0,0,0],"id":70,"left_children":[1,3,5,7,9,11,13,-1,-1,-1,-1,-1,-1,-1,-1],"loss_changes":[6.551889E7,2.9216728E7,6.021142E7,2.366428E7,1.7070235E6,5.7275516E7,3.942168E6,0E0,0E0,0E0,0E0,0E0,0E0,0E0,0E0],"parents":[2147483647,0,0,1,1,2,2,3,3,4,4,5,5,6,6],"right_children":[2,4,6,8,10,12,14,-1,-1,-1,-1,-1,-1,-1,-1],"split_conditions":[5.875E-1,4E0,2.3E1,4.25E0,8E0,3.25E0,3E1,3.7609437E0,1.7362732E1,3.7609437E0,6.627691E0,-5.1763835E0,6.5716255E-1,-7.7645593E0,-1.2884775E1],"split_indices":[0,3,1,5,1,5,2,0,0,0,0,0,0,0,0],"split_type":[0,0,0,0,0,0,0,0,0,0,0,0,0,0,0],"sum_hessian":[3.9303E4,2.327E3,3.6976E4,1.221E3,1.106E3,3.5458E4,1.518E3,2.72E2,9.49E2,5.86E2,5.2E2,4.878E3,3.058E4,7.65E2,7.53E2],"tree_param":{"num_deleted":"0","num_feature":"11","num_nodes":"15","size_leaf_vector":"1"}},{"base_weights":[9.2139256E-1,5.9689358E1,-4.6502876E1,1.2809773E2,-5.571957E0,-1.13100914E2,-1.7787891E1,7.69709E0,-1.3304296E0,-3.4736004E0,6.496897E0,-1.0777481E1,-2.1749017E0,-6.293079E0,3.462204E-2],"categories":[],"categories_nodes":[],"categories_segments":[],"categories_sizes":[],"default_left":[0,0,0,0,0,0,0,0,0,0,0,0,0,0,0],"id":71,"left_children":[1,3,5,7,9,11,13,-1,-1,-1,-1,-1,-1,-1,-1],"loss_changes":[1.09761496E8,7.852096E7,4.167791E7,3.433699E7,7.795815E7,4.6810976E7,3.041801E7,0E0,0E0,0E0,0E0,0E0,0E0,0E0,0E0],"parents":[2147483647,0,0,1,1,2,2,3,3,4,4,5,5,6,6],"right_children":[2,4,6,8,10,12,14,-1,-1,-1,-1,-1,-1,-1,-1],"split_conditions":[-1.3052619E-1,1.2E1,-2.4492937E-16,6E0,1.575E1,9E0,1E0,7.69709E0,-1.3304296E0,-3.4736004E0,6.496897E0,-1.0777481E1,-2.1749017E0,-6.293079E0,3.462204E-2],"split_indices":[7,1,8,3,5,4,3,0,0,0,0,0,0,0,0],"split_type":[0,0,0,0,0,0,0,0,0,0,0,0,0,0,0],"sum_hessian":[3.9381E4,1.7587E4,2.1794E4,8.586E3,9.001E3,6.565E3,1.5229E4,7.357E3,1.229E3,6.117E3,2.884E3,2.655E3,3.91E3,2.223E3,1.3006E4],"tree_param":{"num_deleted":"0","num_feature":"11","num_nodes":"15","size_leaf_vector":"1"}},{"base_weights":[-4.3034548E-1,1.5748104E1,-9.660789E1,1.3653647E2,-1.7743249E-1,-2.0351488E2,-3.8951355E1,3.408976E0,9.120173E0,1.9099613E0,-2.0285277E0,-4.0334516E0,-1.3236862E1,-3.189454E0,7.184723E0],"categories":[],"categories_nodes":[],"categories_segments":[],"categories_sizes":[],"default_left":[0,0,0,0,0,0,0,0,0,0,0,0,0,0,0],"id":72,"left_children":[1,3,5,7,9,11,13,-1,-1,-1,-1,-1,-1,-1,-1],"loss_changes":[6.1076216E7,6.4633644E7,3.483037E7,2.0560808E7,4.6020948E7,1.4870048E7,1.6671755E7,0E0,0E0,0E0,0E0,0E0,0E0,0E0,0E0],"parents":[2147483647,0,0,1,1,2,2,3,3,4,4,5,5,6,6],"right_children":[2,4,6,8,10,12,14,-1,-1,-1,-1,-1,-1,-1,-1],"split_conditions":[6E0,2.9375E0,8.25E0,4.25E0,1.25E1,2.75E0,1.1E1,3.408976E0,9.120173E0,1.9099613E0,-2.0285277E0,-4.0334516E0,-1.3236862E1,-3.189454E0,7.184723E0],"split_indices":[3,0,5,5,5,5,4,0,0,0,0,0,0,0,0],"split_type":[0,0,0,0,0,0,0,0,0,0,0,0,0,0,0],"sum_hessian":[3.925E4,3.3599E4,5.651E3,3.913E3,2.9686E4,1.979E3,3.672E3,9.36E2,2.977E3,1.5223E4,1.4463E4,6.59E2,1.32E3,3.233E3,4.39E2],"tree_param":{"num_deleted":"0","num_feature":"11","num_nodes":"15","size_leaf_vector":"1"}},{"base_weights":[1.0666385E0,-6.955252E1,2.2075178E1,4.6388065E1,-1.09174194E2,3.047388E1,-1.7056758E2,5.967585E0,-2.1205776E0,-2.788984E0,-8.976176E0,-2.7837634E0,2.4313533E0,1.2193311E0,-9.109525E0],"categories":[],"categories_nodes":[],"categories_segments":[],"categories_sizes":[],"default_left":[0,0,0,0,0,0,0,0,0,0,0,0,0,0,0],"id":73,"left_children":[1,3,5,7,9,11,13,-1,-1,-1,-1,-1,-1,-1,-1],"loss_changes":[5.823602E7,4.1348908E7,4.8953016E7,1.486174E7,2.5187032E7,4.533963E7,2.86858E6,0E0,0E0,0E0,0E0,0E0,0E0,0E0,0E0],"parents":[2147483647,0,0,1,1,2,2,3,3,4,4,5,5,6,6],"right_children":[2,4,6,8,10,12,14,-1,-1,-1,-1,-1,-1,-1,-1],"split_conditions":[-5E-1,-8.660254E-1,2.3E1,1.325E1,1.6525E1,4E0,-1E0,5.967585E0,-2.1205776E0,-2.788984E0,-8.976176E0,-2.7837634E0,2.4313533E0,1.2193311E0,-9.109525E0],"split_indices":[9,9,1,5,0,1,0,0,0,0,0,0,0,0,0],"split_type":[0,0,0,0,0,0,0,0,0,0,0,0,0,0,0],"sum_hessian":[3.9251E4,8.999E3,3.0252E4,2.292E3,6.707E3,2.8989E4,1.263E3,1.258E3,1.034E3,3.814E3,2.893E3,5.045E3,2.3944E4,7.1E1,1.192E3],"tree_param":{"num_deleted":"0","num_feature":"11","num_nodes":"15","size_leaf_vector":"1"}},{"base_weights":[2.5613526E-1,-1.4607124E2,1.3400119E2,-4.9133414E2,-1.2797396E2,5.222306E1,2.441247E2,-6.161372E1,-2.2220686E1,-1.0863183E0,-1.0309461E1,7.408694E0,1.2221158E0,1.1031038E1,2.463404E1],"categories":[],"categories_nodes":[],"categories_segments":[],"categories_sizes":[],"default_left":[0,0,0,0,0,0,0,0,0,0,0,0,0,0,0],"id":74,"left_children":[1,3,5,7,9,11,13,-1,-1,-1,-1,-1,-1,-1,-1],"loss_changes":[7.6800755E8,1.1703066E8,1.8463098E8,3.188832E7,1.4798326E8,4.354531E7,5.093328E7,0E0,0E0,0E0,0E0,0E0,0E0,0E0,0E0],"parents":[2147483647,0,0,1,1,2,2,3,3,4,4,5,5,6,6],"right_children":[2,4,6,8,10,12,14,-1,-1,-1,-1,-1,-1,-1,-1],"split_conditions":[9.148503E3,6.95574E3,1.0333997E4,4E0,5.5E0,7.5E0,1.2165586E4,-6.161372E1,-2.2220686E1,-1.0863183E0,-1.0309461E1,7.408694E0,1.2221158E0,1.1031038E1,2.463404E1],"split_indices":[10,10,10,4,5,5,10,0,0,0,0,0,0,0,0],"split_type":[0,0,0,0,0,0,0,0,0,0,0,0,0,0,0],"sum_hessian":[3.9241E4,1.8739E4,2.0502E4,9.32E2,1.7807E4,1.1766E4,8.736E3,5.4E1,8.78E2,7.551E3,1.0256E4,1.845E3,9.921E3,7.983E3,7.53E2],"tree_param":{"num_deleted":"0","num_feature":"11","num_nodes":"15","size_leaf_vector":"1"}},{"base_weights":[1.4309615E0,1.541985E1,-8.311226E1,1.9536705E2,6.9957876E0,-1.8446129E2,-2.9879215E1,1.3226491E1,5.059071E0,-4.2216797E0,1.0613099E0,-3.443999E0,-1.2150719E1,-2.7282913E0,7.353574E0],"categories":[],"categories_nodes":[],"categories_segments":[],"categories_sizes":[],"default_left":[0,0,0,0,0,0,0,0,0,0,0,0,0,0,0],"id":75,"left_children":[1,3,5,7,9,11,13,-1,-1,-1,-1,-1,-1,-1,-1],"loss_changes":[4.6449296E7,5.10825E7,3.0077652E7,1.514506E7,4.1887388E7,1.2977148E7,1.5982941E7,0E0,0E0,0E0,0E0,0E0,0E0,0E0,0E0],"parents":[2147483647,0,0,1,1,2,2,3,3,4,4,5,5,6,6],"right_children":[2,4,6,8,10,12,14,-1,-1,-1,-1,-1,-1,-1,-1],"split_conditions":[6E0,-2.375E-1,8.25E0,2E0,3.25E0,2.75E0,1.1E1,1.3226491E1,5.059071E0,-4.2216797E0,1.0613099E0,-3.443999E0,-1.2150719E1,-2.7282913E0,7.353574E0],"split_indices":[3,0,5,4,5,5,4,0,0,0,0,0,0,0,0],"split_type":[0,0,0,0,0,0,0,0,0,0,0,0,0,0,0],"sum_hessian":[3.9273E4,3.3698E4,5.575E3,1.506E3,3.2192E4,1.919E3,3.656E3,1.068E3,4.38E2,4.335E3,2.7857E4,6.46E2,1.273E3,3.209E3,4.47E2],"tree_param":{"num_deleted":"0","num_feature":"11","num_nodes":"15","size_leaf_vector":"1"}},{"base_weights":[-5.272802E-1,5.063707E1,-4.189513E1,1.1399686E2,-9.715904E0,-1.3269379E1,-9.269556E1,2.0246399E1,5.1517215E0,-3.794806E0,5.3436937E0,1.2720827E0,-5.517318E0,-1.1756229E1,-3.4635842E0],"categories":[],"categories_nodes":[],"categories_segments":[],"categories_sizes":[],"default_left":[0,0,0,0,0,0,0,0,0,0,0,0,0,0,0],"id":76,"left_children":[1,3,5,7,9,11,13,-1,-1,-1,-1,-1,-1,-1,-1],"loss_changes":[8.320618E7,6.720706E7,3.1608728E7,2.7303448E7,6.946697E7,5.2253336E7,2.6119816E7,0E0,0E0,0E0,0E0,0E0,0E0,0E0,0E0],"parents":[2147483647,0,0,1,1,2,2,3,3,4,4,5,5,6,6],"right_children":[2,4,6,8,10,12,14,-1,-1,-1,-1,-1,-1,-1,-1],"split_conditions":[-1.3052619E-1,1.2E1,8.314696E-1,-4.5000002E-1,1.55E1,5E0,1E0,2.0246399E1,5.1517215E0,-3.794806E0,5.3436937E0,1.2720827E0,-5.517318E0,-1.1756229E1,-3.4635842E0],"split_indices":[7,1,7,0,5,3,3,0,0,0,0,0,0,0,0],"split_type":[0,0,0,0,0,0,0,0,0,0,0,0,0,0,0],"sum_hessian":[3.931E4,1.7574E4,2.1736E4,8.573E3,9.001E3,1.3903E4,7.833E3,3.1E2,8.263E3,5.742E3,3.259E3,9.94E3,3.963E3,1.105E3,6.728E3],"tree_param":{"num_deleted":"0","num_feature":"11","num_nodes":"15","size_leaf_vector":"1"}},{"base_weights":[-9.589755E-2,-9.4566696E1,1.8035678E2,-2.412863E2,-5.0553444E1,1.3071907E2,3.0031186E2,-5.225891E1,-1.1114285E1,2.1447523E0,-5.159338E0,1.0775774E1,3.7463913E0,1.3953443E1,2.7974771E1],"categories":[],"categories_nodes":[],"categories_segments":[],"categories_sizes":[],"default_left":[0,0,0,0,0,0,0,0,0,0,0,0,0,0,0],"id":77,"left_children":[1,3,5,7,9,11,13,-1,-1,-1,-1,-1,-1,-1,-1],"loss_changes":[6.691488E8,1.6636162E8,8.027226E7,9.057411E7,1.3673019E8,5.7561056E7,2.1575392E7,0E0,0E0,0E0,0E0,0E0,0E0,0E0,0E0],"parents":[2147483647,0,0,1,1,2,2,3,3,4,4,5,5,6,6],"right_children":[2,4,6,8,10,12,14,-1,-1,-1,-1,-1,-1,-1,-1],"split_conditions":[9.863745E3,7.787785E3,1.1092879E4,2E0,6.25E0,6.123234E-17,1.2556237E4,-5.225891E1,-1.1114285E1,2.1447523E0,-5.159338E0,1.0775774E1,3.7463913E0,1.3953443E1,2.7974771E1],"split_indices":[10,10,10,4,5,9,10,0,0,0,0,0,0,0,0],"split_type":[0,0,0,0,0,0,0,0,0,0,0,0,0,0,0],"sum_hessian":[3.925E4,2.5763E4,1.3487E4,5.944E3,1.9819E4,9.541E3,3.946E3,1.36E2,5.808E3,5.302E3,1.4517E4,3.156E3,6.385E3,3.649E3,2.97E2],"tree_param":{"num_deleted":"0","num_feature":"11","num_nodes":"15","size_leaf_vector":"1"}},{"base_weights":[1.6150458E0,2.3851091E1,-7.792447E1,5.7602596E1,-2.118366E1,-2.0115782E2,-5.702365E1,1.0591697E1,1.861425E0,6.417163E-1,-3.605952E0,-4.644348E0,-1.3406093E1,-4.269366E0,1.6393353E0],"categories":[],"categories_nodes":[],"categories_segments":[],"categories_sizes":[],"default_left":[0,0,0,0,0,0,0,0,0,0,0,0,0,0,0],"id":78,"left_children":[1,3,5,7,9,11,13,-1,-1,-1,-1,-1,-1,-1,-1],"loss_changes":[6.918945E7,4.6471904E7,2.200284E7,5.490737E7,2.269608E7,8.95816E6,1.8621384E7,0E0,0E0,0E0,0E0,0E0,0E0,0E0,0E0],"parents":[2147483647,0,0,1,1,2,2,3,3,4,4,5,5,6,6],"right_children":[2,4,6,8,10,12,14,-1,-1,-1,-1,-1,-1,-1,-1],"split_conditions":[7.933533E-1,4E0,1E0,3.575E0,-6.5403126E-2,-1.3052619E-1,8.660254E-1,1.0591697E1,1.861425E0,6.417163E-1,-3.605952E0,-4.644348E0,-1.3406093E1,-4.269366E0,1.6393353E0],"split_indices":[7,3,3,0,7,6,9,0,0,0,0,0,0,0,0],"split_type":[0,0,0,0,0,0,0,0,0,0,0,0,0,0,0],"sum_hessian":[3.9118E4,3.0572E4,8.546E3,1.7475E4,1.3097E4,1.238E3,7.308E3,2.038E3,1.5437E4,7.853E3,5.244E3,4.74E2,7.64E2,5.554E3,1.754E3],"tree_param":{"num_deleted":"0","num_feature":"11","num_nodes":"15","size_leaf_vector":"1"}},{"base_weights":[2.3124049E0,4.7060844E1,-3.3784775E1,1.06826675E2,-4.962935E0,-1.5027312E1,-1.0381072E2,8.203108E-1,6.861772E0,-2.9366891E0,5.8798623E0,4.606968E-1,-2.9709508E0,-2.9709508E0,-7.515928E0],"categories":[],"categories_nodes":[],"categories_segments":[],"categories_sizes":[],"default_left":[0,0,0,0,0,0,0,0,0,0,0,0,0,0,0],"id":79,"left_children":[1,3,5,7,9,11,13,-1,-1,-1,-1,-1,-1,-1,-1],"loss_changes":[6.347289E7,5.4552212E7,2.8567262E7,2.2448056E7,6.182924E7,2.40002E7,1.6514604E7,0E0,0E0,0E0,0E0,0E0,0E0,0E0,0E0],"parents":[2147483647,0,0,1,1,2,2,3,3,4,4,5,5,6,6],"right_children":[2,4,6,8,10,12,14,-1,-1,-1,-1,-1,-1,-1,-1],"split_conditions":[-1.3052619E-1,1.175E1,1.44E1,8E0,1.575E1,5E0,7E0,8.203108E-1,6.861772E0,-2.9366891E0,5.8798623E0,4.606968E-1,-2.9709508E0,-2.9709508E0,-7.515928E0],"split_indices":[7,5,0,1,5,3,4,0,0,0,0,0,0,0,0],"split_type":[0,0,0,0,0,0,0,0,0,0,0,0,0,0,0],"sum_hessian":[3.9293E4,1.7544E4,2.1749E4,8.164E3,9.38E3,1.7155E4,4.594E3,2.055E3,6.109E3,6.52E3,2.86E3,1.2272E4,4.883E3,1.5E3,3.094E3],"tree_param":{"num_deleted":"0","num_feature":"11","num_nodes":"15","size_leaf_vector":"1"}},{"base_weights":[1.0677086E0,2.1238792E1,-7.063598E1,4.4475513E1,-3.5623955E1,-1.7754745E2,-4.7139923E1,3.5289688E0,2.2128896E-1,2.2128896E-1,-5.1445823E0,-6.190196E0,-1.4117351E1,-9.047282E0,-1.2127689E0],"categories":[],"categories_nodes":[],"categories_segments":[],"categories_sizes":[],"default_left":[0,0,0,0,0,0,0,0,0,0,0,0,0,0,0],"id":80,"left_children":[1,3,5,7,9,11,13,-1,-1,-1,-1,-1,-1,-1,-1],"loss_changes":[5.6832572E7,4.0522E7,2.1662644E7,3.372631E7,4.5525776E7,8.717648E6,2.1656788E7,0E0,0E0,0E0,0E0,0E0,0E0,0E0,0E0],"parents":[2147483647,0,0,1,1,2,2,3,3,4,4,5,5,6,6],"right_children":[2,4,6,8,10,12,14,-1,-1,-1,-1,-1,-1,-1,-1],"split_conditions":[7.933533E-1,1.5200001E1,-5E-1,5E0,1.25E1,1E1,1E0,3.5289688E0,2.2128896E-1,2.2128896E-1,-5.1445823E0,-6.190196E0,-1.4117351E1,-9.047282E0,-1.2127689E0],"split_indices":[7,0,8,3,5,4,3,0,0,0,0,0,0,0,0],"split_type":[0,0,0,0,0,0,0,0,0,0,0,0,0,0,0],"sum_hessian":[3.9292E4,3.0666E4,8.626E3,2.177E4,8.896E3,1.553E3,7.073E3,1.5685E4,6.085E3,3.705E3,5.191E3,1.028E3,5.25E2,1.032E3,6.041E3],"tree_param":{"num_deleted":"0","num_feature":"11","num_nodes":"15","size_leaf_vector":"1"}},{"base_weights":[1.6221844E0,-1.3286366E2,1.1101685E2,-5.149119E1,-2.051243E2,4.923857E1,2.2323671E2,-1.3946444E1,-5.4617023E-1,-5.0974026E1,-9.157027E0,6.811882E0,1.3218535E0,1.584063E1,8.836658E0],"categories":[],"categories_nodes":[],"categories_segments":[],"categories_sizes":[],"default_left":[0,0,0,0,0,0,0,0,0,0,0,0,0,0,0],"id":81,"left_children":[1,3,5,7,9,11,13,-1,-1,-1,-1,-1,-1,-1,-1],"loss_changes":[5.777122E8,1.0356029E8,1.5011072E8,1.397137E8,1.6682662E8,4.2702976E7,3.3399232E7,0E0,0E0,0E0,0E0,0E0,0E0,0E0,0E0],"parents":[2147483647,0,0,1,1,2,2,3,3,4,4,5,5,6,6],"right_children":[2,4,6,8,10,12,14,-1,-1,-1,-1,-1,-1,-1,-1],"split_conditions":[9.033635E3,5.5E0,1.0465942E4,7.274375E3,2E0,6.75E0,1.075E1,-1.3946444E1,-5.4617023E-1,-5.0974026E1,-9.157027E0,6.811882E0,1.3218535E0,1.584063E1,8.836658E0],"split_indices":[10,5,10,10,4,5,5,0,0,0,0,0,0,0,0],"split_type":[0,0,0,0,0,0,0,0,0,0,0,0,0,0,0],"sum_hessian":[3.9266E4,1.7613E4,2.1653E4,8.285E3,9.328E3,1.3966E4,7.687E3,2.134E3,6.151E3,2.44E2,9.084E3,1.655E3,1.2311E4,2.55E3,5.137E3],"tree_param":{"num_deleted":"0","num_feature":"11","num_nodes":"15","size_leaf_vector":"1"}},{"base_weights":[2.2618706E0,-1.26496925E2,1.07731544E2,-5.1476532E1,-1.928069E2,6.034724E1,2.4011464E2,-1.2039527E1,-4.6913454E-1,-4.940914E1,-8.603129E0,7.061001E0,1.2667613E0,9.407088E0,1.654382E1],"categories":[],"categories_nodes":[],"categories_segments":[],"categories_sizes":[],"default_left":[0,0,0,0,0,0,0,0,0,0,0,0,0,0,0],"id":82,"left_children":[1,3,5,7,9,11,13,-1,-1,-1,-1,-1,-1,-1,-1],"loss_changes":[5.3471843E8,8.81897E7,1.3576202E8,1.3439338E8,1.5510707E8,4.5133656E7,2.6849088E7,0E0,0E0,0E0,0E0,0E0,0E0,0E0,0E0],"parents":[2147483647,0,0,1,1,2,2,3,3,4,4,5,5,6,6],"right_children":[2,4,6,8,10,12,14,-1,-1,-1,-1,-1,-1,-1,-1],"split_conditions":[9.033635E3,5.5E0,1.0772796E4,7.39523E3,2E0,1.05E1,3E0,-1.2039527E1,-4.6913454E-1,-4.940914E1,-8.603129E0,7.061001E0,1.2667613E0,9.407088E0,1.654382E1],"split_indices":[10,5,10,10,4,5,4,0,0,0,0,0,0,0,0],"split_type":[0,0,0,0,0,0,0,0,0,0,0,0,0,0,0],"sum_hessian":[3.9373E4,1.7729E4,2.1644E4,8.319E3,9.41E3,1.594E4,5.704E3,2.784E3,5.535E3,2.38E2,9.172E3,4.815E3,1.1125E4,3.629E3,2.075E3],"tree_param":{"num_deleted":"0","num_feature":"11","num_nodes":"15","size_leaf_vector":"1"}},{"base_weights":[2.0592136E0,7.932119E0,-1.3439818E2,1.4194685E2,2.5055857E0,-9.401795E1,-1.7556943E2,3.611311E0,1.0251376E1,-3.7198934E-1,3.611311E0,-3.2021809E0,-7.409215E0,-1.4874794E0,-9.200848E0],"categories":[],"categories_nodes":[],"categories_segments":[],"categories_sizes":[],"default_left":[0,0,0,0,0,0,0,0,0,0,0,0,0,0,0],"id":83,"left_children":[1,3,5,7,9,11,13,-1,-1,-1,-1,-1,-1,-1,-1],"loss_changes":[3.1424812E7,2.733933E7,2.67343E6,1.1471732E7,2.5401878E7,1.320237E6,9.79976E5,0E0,0E0,0E0,0E0,0E0,0E0,0E0,0E0],"parents":[2147483647,0,0,1,1,2,2,3,3,4,4,5,5,6,6],"right_children":[2,4,6,8,10,12,14,-1,-1,-1,-1,-1,-1,-1,-1],"split_conditions":[2.3E1,-4.5000002E-1,3E1,8.660254E-1,1.1E1,7E0,-2.375E-1,3.611311E0,1.0251376E1,-3.7198934E-1,3.611311E0,-3.2021809E0,-7.409215E0,-1.4874794E0,-9.200848E0],"split_indices":[1,0,2,9,4,4,0,0,0,0,0,0,0,0,0],"split_type":[0,0,0,0,0,0,0,0,0,0,0,0,0,0,0],"sum_hessian":[3.921E4,3.7593E4,1.617E3,1.462E3,3.6131E4,8.18E2,7.99E2,4.09E2,1.053E3,3.1676E4,4.455E3,5.28E2,2.9E2,4.4E1,7.55E2],"tree_param":{"num_deleted":"0","num_feature":"11","num_nodes":"15","size_leaf_vector":"1"}},{"base_weights":[3.3849782E-1,-1.280509E2,9.407855E1,-4.9992878E1,-1.978983E2,3.1404314E1,1.8324542E2,-1.4444132E1,-8.493088E-1,-4.7065E1,-8.856044E0,5.3662434E0,1.8408042E-1,7.0910263E0,1.3803847E1],"categories":[],"categories_nodes":[],"categories_segments":[],"categories_sizes":[],"default_left":[0,0,0,0,0,0,0,0,0,0,0,0,0,0,0],"id":84,"left_children":[1,3,5,7,9,11,13,-1,-1,-1,-1,-1,-1,-1,-1],"loss_changes":[4.7350198E8,9.051216E7,1.2707595E8,1.1365876E8,1.3517078E8,4.156982E7,3.605507E7,0E0,0E0,0E0,0E0,0E0,0E0,0E0,0E0],"parents":[2147483647,0,0,1,1,2,2,3,3,4,4,5,5,6,6],"right_children":[2,4,6,8,10,12,14,-1,-1,-1,-1,-1,-1,-1,-1],"split_conditions":[8.91656E3,5.25E0,1.0269604E4,7.163975E3,2E0,7.5E0,1.1361794E4,-1.4444132E1,-8.493088E-1,-4.7065E1,-8.856044E0,5.3662434E0,1.8408042E-1,7.0910263E0,1.3803847E1],